{"layers":[{"out_depth":192,"out_sx":1,"out_sy":1,"layer_type":"input"},{"out_depth":192,"out_sx":1,"out_sy":1,"layer_type":"fc","num_inputs":192,"l1_decay_mul":0,"l2_decay_mul":1,"filters":[{"sx":1,"sy":1,"depth":192,"w":{"0":-0.04336534758822894,"1":0.029499172924941867,"2":0.06628646972370206,"3":0.01455925642007295,"4":-0.014849815629861022,"5":-0.05956893863293828,"6":0.09636174228980353,"7":0.08960904027933715,"8":0.04763584369905375,"9":0.013478327725949361,"10":0.03559019198549693,"11":0.0026966135689838744,"12":0.07221902236950602,"13":0.02740576059114604,"14":0.1290815904825508,"15":-0.03129419789179268,"16":-0.01975205125857699,"17":0.06088556877741232,"18":-0.08225782777883844,"19":-0.05655805602848185,"20":0.18021908150592145,"21":-0.016826384465955267,"22":-0.05502927737095195,"23":0.09837429377752654,"24":0.007513176290325517,"25":0.07320233232781771,"26":0.05331395108670668,"27":-0.02438074770614299,"28":-0.08611455696324609,"29":-0.04366781828554127,"30":-0.1512937585843201,"31":0.04387125404387745,"32":-0.08175769541747122,"33":-0.05619476908328391,"34":0.06677642028345607,"35":-0.05927296234256533,"36":-0.09413129326104022,"37":0.06903997515639322,"38":0.011570632347895321,"39":0.039388579919942365,"40":0.006999757262949635,"41":0.04509279634769553,"42":-0.015562220966602463,"43":-0.038987037984303495,"44":0.043121583061668946,"45":-0.022980938177921795,"46":0.025148221073276505,"47":-0.037750179513851435,"48":0.04932739326246061,"49":-0.04754372563868842,"50":0.02610129328570504,"51":-0.018884588415242706,"52":-0.004648486460134669,"53":0.025892521358708804,"54":0.00684119466559762,"55":0.056662704848417976,"56":0.024214294415277414,"57":-0.030227776753778492,"58":0.0502741946130839,"59":-0.0005075101126917187,"60":-0.028464109618589518,"61":0.005145545923998496,"62":-0.11982558236288196,"63":-0.03998598556349328,"64":-0.05838861153126537,"65":-0.03331273929925794,"66":0.06828768384394474,"67":0.04951315386420098,"68":0.012330886008329005,"69":-0.06147611735654412,"70":0.05494060890715582,"71":-0.034901979455259045,"72":0.00176305723032951,"73":0.009595672922740574,"74":-0.12275745928960834,"75":0.05147210478935608,"76":0.06995711899313507,"77":-0.01239278398601688,"78":-0.07050141336146841,"79":-0.0035085956084488423,"80":0.007279878198073229,"81":0.014802042332480492,"82":0.07757403670342292,"83":-0.0558333670125616,"84":0.14978766024992624,"85":0.0055678473411838805,"86":-0.05417483363070122,"87":0.0049128613365574765,"88":0.04539992007939081,"89":0.011928290867413299,"90":-0.08828399949482961,"91":-0.027962400446486093,"92":0.039910176357031465,"93":0.06687016068132276,"94":-0.054023034059119186,"95":0.03711749017120927,"96":-0.004237627322707552,"97":-0.0477363278532993,"98":-0.012694534009083146,"99":0.009586375234201415,"100":-0.0839923332155553,"101":-0.016963819859019538,"102":0.1005435274872511,"103":-0.03060680844196653,"104":0.059240778914266295,"105":0.05193213038286377,"106":0.015155663634863816,"107":0.0797446590820615,"108":-0.06790672809385426,"109":0.03561589717616295,"110":-0.015575872343369828,"111":-0.08470420344973882,"112":0.06418716903371068,"113":-0.0053192890067544005,"114":0.05001105966165249,"115":-0.05455453710161632,"116":-0.004507678814652465,"117":-0.006517428005186997,"118":-0.06208721514715748,"119":0.01908044418521415,"120":-0.10630428536478143,"121":-0.040813497259524795,"122":-0.07432974041121493,"123":0.01310307892952684,"124":0.048792332762987986,"125":0.007627403454549672,"126":-0.0025550998317817528,"127":-0.08390561750251743,"128":0.07054835200100212,"129":0.039665651567344716,"130":-0.055698104910248084,"131":-0.06963321909284961,"132":-0.06793076363048343,"133":-0.14048769530343602,"134":-0.054216172245120715,"135":-0.059651274429975344,"136":-0.06280701101669724,"137":-0.04826003517991683,"138":-0.14269119914871786,"139":-0.16739623914982027,"140":0.09548354272069413,"141":0.03104426330651324,"142":-0.061955878678489715,"143":0.028115579447202,"144":-0.09078053043935416,"145":-0.028728037117596656,"146":0.07438656811831595,"147":-0.10582253074915998,"148":-0.01599239010079419,"149":0.11633599945238066,"150":-0.005934161766684321,"151":-0.021815430690194256,"152":0.018843864179481324,"153":-0.14412232862356825,"154":-0.0562073818837907,"155":0.014861244488290022,"156":-0.009529721129209398,"157":0.05255351594742409,"158":0.010797855012380576,"159":0.029203512139617107,"160":0.026719104473819102,"161":-0.00518902458584683,"162":0.050505149992223476,"163":-0.06080557027721817,"164":0.01817854124360732,"165":-0.05155082372538586,"166":-0.1444172409771222,"167":-0.030821841373968376,"168":-0.09480873555806485,"169":0.006860497353533221,"170":-0.025879689569285703,"171":0.008425163143265505,"172":0.02173421802498487,"173":-0.027356093072600406,"174":0.1478566208200209,"175":-0.06202760483603957,"176":-0.06655864445428485,"177":-0.015636567441824685,"178":-0.020363802164251394,"179":0.0055410122618816905,"180":0.054840251827374474,"181":0.043340378465902024,"182":-0.0018779535659993734,"183":0.06105434737317983,"184":0.007439024408411076,"185":0.0517368432531277,"186":-0.0274564785568964,"187":0.09274221873529016,"188":0.12603875956036087,"189":-0.006300431670703454,"190":0.10163150756299574,"191":0.0026682684910485457}},{"sx":1,"sy":1,"depth":192,"w":{"0":0.09001469864791013,"1":0.064478741552951,"2":0.04012223225015797,"3":0.05081436604231744,"4":0.19166072239897183,"5":0.007036518443847318,"6":0.0760495454542768,"7":0.007776159984309842,"8":0.1861336911099331,"9":0.056319504714065785,"10":0.09798503674319921,"11":0.017940326329854053,"12":0.040554712954245294,"13":-0.04148853457597886,"14":0.13139624904811023,"15":0.02235734076966576,"16":0.15541638047026587,"17":0.09005346081346662,"18":0.05812085878417448,"19":-0.03359905355702295,"20":0.07808798526286069,"21":-0.04135150411576099,"22":-0.06425862000533333,"23":-0.008588264564058416,"24":0.008755569540799217,"25":0.02921304423180574,"26":0.03771277105176136,"27":0.013606475580406466,"28":-0.02884932572807532,"29":0.004811646723942501,"30":-0.015937070754536153,"31":0.011680945075276066,"32":-0.14058817288162634,"33":-0.08818790562502726,"34":0.0001394110172484647,"35":-0.06460594289589718,"36":-0.019159325626876417,"37":0.08261243332551513,"38":0.004537301283116463,"39":-0.01290344501578744,"40":0.04721460785407814,"41":-0.11956827206975768,"42":-0.05533947917010054,"43":-0.03787991565006094,"44":0.09241457447398768,"45":0.045551569736178237,"46":0.03354037621416173,"47":0.005524957497844795,"48":-0.03178395391813718,"49":-0.03948562721776376,"50":0.05147909100126418,"51":-0.046191719561058275,"52":-0.05035596554431753,"53":-0.023030938801290368,"54":-0.07133855785516925,"55":-0.03486615864547206,"56":0.004538912234177523,"57":-0.01564247405640132,"58":0.06136676451945815,"59":-0.014622588609735159,"60":-0.05295411798585103,"61":0.18469517764073728,"62":0.0119873200287498,"63":-0.1026838210192731,"64":-0.020648829278231515,"65":-0.0997205139151017,"66":-0.03026417107737404,"67":0.04012746185075162,"68":-0.0024709741412123594,"69":0.11002765168647945,"70":-0.0150686744929009,"71":0.12183921461301803,"72":0.1643236158875231,"73":0.01688093112530083,"74":0.1069600840912959,"75":0.10885493434666141,"76":-0.0492515205675198,"77":0.09161889253617125,"78":0.0889035575239165,"79":-0.08305762989158695,"80":0.08889711161160821,"81":-0.05078982942874084,"82":-0.0382421860888128,"83":-0.12424047199804747,"84":0.07919530576720019,"85":-0.06479730302456495,"86":0.03031484331538395,"87":-0.0014608168210997173,"88":-0.0035766608034651926,"89":-0.09979603200793345,"90":0.015270195012931528,"91":0.005848178695479683,"92":-0.016593263892608644,"93":0.05397791377528011,"94":0.020675190960431054,"95":-0.08460772483118023,"96":-0.04990719047851925,"97":0.02095783729061073,"98":0.009516746214538907,"99":-0.11508874610515865,"100":-0.011952528891285282,"101":0.00618433804114944,"102":0.054911480431616325,"103":0.02147004463369524,"104":-0.10872403979905555,"105":-0.0902043540803772,"106":0.14076723241666975,"107":-0.01260524741037653,"108":-0.03268894936060975,"109":-0.1896399787922314,"110":0.03952967479149285,"111":-0.02660229672910415,"112":-0.04896041984932962,"113":0.011376445445115919,"114":0.052639929795796875,"115":0.018973739252828026,"116":0.025891450138757183,"117":0.03493308384595924,"118":0.010951588305098733,"119":-0.022814592212898267,"120":-0.007887889896284113,"121":-0.06254300756651736,"122":-0.03430279078893505,"123":-0.14789522113534873,"124":-0.03452868293222054,"125":0.04588385402887173,"126":0.022482859272312552,"127":0.07873880784225508,"128":0.003184122291837321,"129":0.0205392599242131,"130":-0.18224208559060812,"131":-0.0388723947961427,"132":0.043158128522634245,"133":-0.09236651050815044,"134":-0.000421965712397682,"135":-0.1953151876749691,"136":-0.12688905036713038,"137":-0.13401887519487296,"138":-0.060822604248117966,"139":0.039625521499794196,"140":0.01772351841481247,"141":0.049936267166191914,"142":0.009696700332073139,"143":0.08855821642110105,"144":-0.022052892138337773,"145":-0.014053340279726295,"146":-0.046124375352933365,"147":0.05781844516294486,"148":0.01540781569876581,"149":0.09181549329224264,"150":0.06391468501683821,"151":0.02296309144839276,"152":-0.0023501698108069945,"153":-0.046461354212980414,"154":-0.02884070104395361,"155":0.09953922913004029,"156":-0.014504238760942765,"157":-0.1153799384465088,"158":-0.14599772739449887,"159":0.031549826227690154,"160":-0.11795949150365169,"161":-0.03713741100557558,"162":0.08975824000929318,"163":-0.11487573813230713,"164":0.097128669283271,"165":-0.0072191850393415625,"166":0.0551124130852078,"167":0.07402912030012429,"168":-0.022390520327241134,"169":-0.011696363965548722,"170":-0.021823878299928986,"171":-0.09091211888454548,"172":-0.016230465863654366,"173":-0.044774172169762816,"174":-0.003318060214299077,"175":-0.033646242574832334,"176":-0.010127612318247417,"177":-0.04909882413853408,"178":0.015500092885291222,"179":0.001122023284533364,"180":0.028870394911524138,"181":-0.08376094799751564,"182":-0.05272493482835802,"183":-0.02814607587086217,"184":0.04605301645778099,"185":0.04230714031160796,"186":0.0406635950364682,"187":-0.10384792896971463,"188":-0.011938633056326364,"189":-0.043564675507125124,"190":-0.10384995808543007,"191":0.006382490877618566}},{"sx":1,"sy":1,"depth":192,"w":{"0":0.09212576247146302,"1":-0.019920467691101874,"2":-0.04575484204118615,"3":0.03729568471687088,"4":-0.06075808759233656,"5":-0.005615595038183081,"6":-0.08150908459690145,"7":-0.028143268311896234,"8":-0.1317658700317297,"9":-0.15511443642988246,"10":0.03464649966875359,"11":-0.054845978121992475,"12":0.04876431205104225,"13":-0.042871243596820416,"14":0.02005941394035662,"15":-0.05593706504016928,"16":0.020592932927438138,"17":-0.14161444127874243,"18":0.027912153289211084,"19":0.07232231708693503,"20":-0.06313762446331647,"21":0.15500794766045564,"22":-0.027068877995788648,"23":-0.0021700533316200733,"24":-0.0023865336829651394,"25":-0.012927015929405039,"26":-0.031019977913740393,"27":0.015320737991326269,"28":-0.0015211186560241633,"29":0.02750666119790325,"30":-0.0044209054498680735,"31":0.03440683546869219,"32":-0.06423349266439096,"33":-0.0535347991077572,"34":-0.038353716473859045,"35":-0.09474975991882931,"36":-0.03848863435358538,"37":-0.038963506399062424,"38":-0.010997519449244354,"39":0.03303658156244185,"40":-0.06152275755713795,"41":0.0026255079749569884,"42":-0.007605832932637718,"43":0.017167244858994523,"44":-0.16309492949113477,"45":-0.014082652039198547,"46":0.12261289410564025,"47":0.07354717721484896,"48":0.10529331733751351,"49":-0.047953597820624354,"50":-0.025127000321597596,"51":-0.05504859203977649,"52":-0.037247216449265604,"53":-0.03898617138967774,"54":-0.03993883967966712,"55":0.01618550914683358,"56":0.021773885713846038,"57":0.13668135045620852,"58":-0.04819921967637719,"59":-0.03310085146949146,"60":-0.05374955379843265,"61":-0.015601410895339316,"62":0.0066029018802085835,"63":0.14275057576341804,"64":0.015351088986554573,"65":0.05738136413065171,"66":0.013535178236736526,"67":-0.005233125375176053,"68":0.05731113115349228,"69":0.01835894726422741,"70":0.05969264837396554,"71":0.1128006272528024,"72":0.024364995412170236,"73":-0.061041875412344175,"74":-0.09486929347874389,"75":-0.0625238882426774,"76":0.10410378119590319,"77":0.17651030574492274,"78":-0.027905036382868714,"79":-0.007176607315622229,"80":0.030300019014447056,"81":0.0644034280210115,"82":0.0431146450677655,"83":-0.014694391308550867,"84":0.16003541892468906,"85":0.07566034730799018,"86":0.09094197871474402,"87":0.037467178114163946,"88":0.019645842806870786,"89":0.02625579674178598,"90":0.03990639429603942,"91":0.013818169380874249,"92":0.03790009124544744,"93":-0.010724830296542677,"94":-0.019240142335607873,"95":0.056919208389800545,"96":-0.050296334068043395,"97":-0.006651554409312979,"98":-0.014838557113017105,"99":-0.06809992017525801,"100":0.05523214951278362,"101":-0.014159861219359898,"102":-0.07236143948217878,"103":-0.014236073022209974,"104":0.051156955345752535,"105":-0.08558187598443014,"106":0.04612280478022166,"107":-0.010472732015856289,"108":0.08727261010144695,"109":0.06956371434730375,"110":0.02661023893574387,"111":-0.05482386980672936,"112":0.05468320022888065,"113":-0.10592545227251646,"114":0.035647399732325585,"115":0.04678602730196313,"116":-0.025886465945531015,"117":0.051499678238916116,"118":0.05654501552741391,"119":0.007314778075600989,"120":0.012611983442100672,"121":-0.03256538888494558,"122":-0.023211593931316023,"123":-0.02293633519028323,"124":-0.00046133008264854955,"125":-0.012638217063494528,"126":0.01526059419847436,"127":0.04286197393862262,"128":-0.07908251414064799,"129":0.09410677567031735,"130":0.14124131592430392,"131":0.06816211674995644,"132":0.0056304345175079255,"133":0.11342798005429221,"134":0.02285959914005826,"135":0.16066367766918102,"136":0.13113543376241268,"137":0.21696435666541622,"138":0.025704424483342314,"139":-0.047055276108814326,"140":-0.026619987275240703,"141":0.07105296827299377,"142":-0.0013930486747524894,"143":-0.03105388636291296,"144":-0.05347133602921384,"145":-0.0019865926284986404,"146":0.08943794008535609,"147":-0.023115664076977325,"148":0.03523012022790777,"149":0.09102047006224194,"150":-0.11839363381167665,"151":-0.03483846584848444,"152":0.021358371081751072,"153":0.03136205312059891,"154":0.03764825512424461,"155":0.10479085888444455,"156":0.05568311069082431,"157":0.0468608081205028,"158":0.039550305202772564,"159":-0.026609859041286002,"160":-0.10903314499541575,"161":0.024952245566136847,"162":0.054086207639964794,"163":0.04845797378916095,"164":0.13326821075861492,"165":0.03293785120650975,"166":0.06904087265064707,"167":-0.051140489071534796,"168":0.12679415422785545,"169":0.16584939819247208,"170":0.10983404451317642,"171":-0.03792536337471369,"172":0.03341339107732399,"173":0.11574794816711081,"174":0.009326743980617705,"175":-0.11668787996551229,"176":0.08804479616026976,"177":0.08313227912478273,"178":0.022366028472413868,"179":0.03190686600210458,"180":0.07110888849956963,"181":-0.030998452207676507,"182":-0.004201401919221171,"183":-0.015947594245812925,"184":0.007213232854693621,"185":0.07576723862121673,"186":-0.003483291232126318,"187":-0.1250219700848977,"188":0.052659578071674595,"189":0.03501728013685722,"190":-0.12580677226073875,"191":-0.019682470398314958}},{"sx":1,"sy":1,"depth":192,"w":{"0":-0.11559806797227358,"1":0.09648937663703794,"2":0.023013623684066446,"3":0.04878530033820763,"4":-0.019290430591256732,"5":0.10406976081690651,"6":0.09798724476067402,"7":0.050380558147667905,"8":0.13605459252654234,"9":0.157941222418353,"10":0.013382786694083335,"11":-0.031238124039619456,"12":0.028474140118367155,"13":0.03849259357361652,"14":0.027822079583387515,"15":0.040863735057374534,"16":-0.06712337817764777,"17":-0.1276959618088428,"18":-0.0013591944802481416,"19":0.0350632241243161,"20":-0.09750160742531522,"21":0.05750517696375503,"22":-0.043373132026567014,"23":-0.05344723506098691,"24":0.008433722721730114,"25":0.01611359414886558,"26":-0.0008599013573182454,"27":0.13649608007542088,"28":-0.08766412078374687,"29":0.09650495833747502,"30":-0.0957083929390827,"31":0.14245295603906907,"32":0.019501471912264517,"33":-0.0381562725660484,"34":-0.011555262136191763,"35":-0.037212768708254615,"36":0.06232621482187185,"37":-0.09230355242025479,"38":0.07736308083627155,"39":-0.10251360242313218,"40":0.031782782345200405,"41":0.0291322608033411,"42":0.07023303712417064,"43":0.11978050560253578,"44":0.03798154069951008,"45":0.05266940777459808,"46":0.08600565455832246,"47":0.07542430430214557,"48":-0.10962346705006505,"49":-0.01067500266835571,"50":0.008050695975304478,"51":-0.004775369107126871,"52":0.007215115761309714,"53":0.1146460432365945,"54":-0.0008104143880392738,"55":0.023560886681579827,"56":-0.0003030128382357868,"57":0.05627439975236843,"58":-0.1070112925019462,"59":-0.05397775754854802,"60":0.04733465298204671,"61":0.0203035791052756,"62":-0.06802079776115186,"63":-0.002580545138454288,"64":-0.008152593774870143,"65":0.009212847224824199,"66":-0.05096132016737185,"67":-0.05970927548383218,"68":-0.04149836690934493,"69":-0.027256431499941804,"70":0.06895464611759915,"71":-0.15077735618895258,"72":-0.05087874712678717,"73":-0.03211975770555544,"74":0.06051040623168282,"75":-0.027854639927294866,"76":-0.1813339581016929,"77":-0.08110318687832674,"78":-0.03557154393717372,"79":0.004357263678119465,"80":-0.04023655107340734,"81":-0.10506889472903694,"82":-0.02806636835383939,"83":-0.04401515803281312,"84":-0.056085876973800124,"85":-0.09905788085979664,"86":0.012770904329420487,"87":0.09080923395251422,"88":0.10690064567661707,"89":-0.048136198678003166,"90":-0.019265134815857697,"91":-0.07434944234868639,"92":-0.0481868226936332,"93":-0.06494755068627607,"94":0.007868247593380838,"95":-0.01670718537239734,"96":-0.06776019685725711,"97":0.046573134211531975,"98":-0.15650117716326975,"99":0.01462736159105052,"100":-0.07283055463939203,"101":0.011597673253243514,"102":-0.04127388294471201,"103":0.0186223177632421,"104":-0.04094291913445756,"105":0.04406584142128877,"106":-0.025741665815269366,"107":-0.04481918611267586,"108":0.051425570072622585,"109":0.05064801593001479,"110":-0.05734347823677799,"111":-0.012510481275413137,"112":0.07621885436424598,"113":0.03389525444130341,"114":-0.026805197513050893,"115":-0.03730011128436802,"116":-0.05746869540121506,"117":0.03581669726926513,"118":-0.019984517741647584,"119":0.18260265432018294,"120":-0.0010420082060714675,"121":0.04096619677494838,"122":0.009591990286123899,"123":0.004752737740505358,"124":0.01679491753257899,"125":0.1039447988715292,"126":-0.0780015377355472,"127":-0.03624921809998367,"128":0.06469835022989195,"129":-0.009793110746067028,"130":-0.09923876407362547,"131":-0.0454324342095385,"132":-0.12354490403319182,"133":-0.1674613141487595,"134":-0.11525501393475236,"135":0.0007549161972647642,"136":-0.12304296613794914,"137":-0.1543210400913261,"138":-0.023476228626433508,"139":-0.0495543058858016,"140":0.06372620965754987,"141":-0.0038329967323095034,"142":-0.07926590644758785,"143":0.04364798327265306,"144":-0.013046417048441504,"145":-0.020254432630286902,"146":-0.08026485854739586,"147":-0.014187132745491311,"148":0.0070745215343377636,"149":-0.05558048817983802,"150":-0.05790012674125845,"151":-0.040831272053107756,"152":-0.004454627553399113,"153":-0.031015753344956834,"154":0.015170263905292775,"155":0.012049392696052172,"156":-0.018670472045709614,"157":0.027816313093994797,"158":-0.024273391775225948,"159":0.03868632426680509,"160":0.022860960163331612,"161":-0.1186556365774461,"162":-0.09311725545462031,"163":-0.11951692271589834,"164":0.008484713491163037,"165":-0.049470896408971184,"166":0.00006667102674640584,"167":-0.036342636010052116,"168":-0.014991325844949988,"169":-0.0883193614721145,"170":-0.10153474268609873,"171":-0.018381902630340174,"172":0.0068581800254000555,"173":0.03241085737259981,"174":0.07355742580335221,"175":0.1508786537926493,"176":0.09998489752490035,"177":0.05807689320056046,"178":-0.053639951850173256,"179":-0.10183255910771702,"180":0.041883035632496506,"181":-0.01158236978513396,"182":-0.09771214971571468,"183":-0.07430777802699837,"184":0.05107983443332634,"185":-0.022393503275773607,"186":0.06265289407157079,"187":-0.05456677570188507,"188":-0.06334014325014084,"189":0.0288735562797077,"190":-0.01572099432246659,"191":-0.02750462603876848}},{"sx":1,"sy":1,"depth":192,"w":{"0":-0.06042281899326289,"1":0.015161765375686852,"2":-0.08644125474890162,"3":-0.05915485870533613,"4":-0.07925278124219202,"5":0.0688114937378834,"6":-0.023433681647727817,"7":-0.14448058850242781,"8":-0.09371521635512196,"9":-0.002211902630232798,"10":-0.11071743521050048,"11":-0.07266626913361625,"12":0.01594306207743487,"13":-0.0382643382090041,"14":0.011144814967047927,"15":0.0341357146930687,"16":0.033632195421605345,"17":-0.07505714311512633,"18":0.009177999222987693,"19":-0.09972212147406191,"20":0.006435797725885552,"21":0.025352070045093555,"22":0.05005280468973757,"23":0.002115638930497875,"24":0.07487224556570597,"25":-0.04399353119613682,"26":-0.032932060091860296,"27":0.0623404015260369,"28":0.08732066342118207,"29":-0.013343392421907695,"30":-0.08508792310591265,"31":-0.037321431090473846,"32":0.08733608557464287,"33":-0.11659422240351024,"34":-0.009276506574237628,"35":0.00045230252446232716,"36":0.03842611645538285,"37":0.11674933353588982,"38":-0.00557245531756773,"39":-0.004291842142373816,"40":0.01868362619366096,"41":-0.0556747425590147,"42":0.00931844969773427,"43":0.07748198367244064,"44":0.036354424310426764,"45":0.042284044250381035,"46":-0.0206311788321229,"47":-0.15103364902011185,"48":-0.01977275506319729,"49":-0.006181687464812653,"50":0.04620245859131999,"51":0.024181319449323134,"52":-0.12768372419410967,"53":0.04394343553195675,"54":0.09658150096466112,"55":-0.06058086962148276,"56":0.0058795836094728375,"57":-0.1303050439102391,"58":0.0472349774493898,"59":0.0371490685552617,"60":0.0028171320191829104,"61":0.01995722619362692,"62":-0.012119979904458964,"63":-0.09029471864232454,"64":0.023715825194946912,"65":0.035006807021689824,"66":-0.039175847907892476,"67":-0.003025759207969359,"68":-0.01952097634373628,"69":-0.021273061272564654,"70":-0.059639775969615574,"71":-0.04770273623574211,"72":0.022888701630755744,"73":-0.07561371645160403,"74":-0.06973986174459096,"75":0.0037993549481225544,"76":0.00767262483887076,"77":-0.018810220027079137,"78":-0.07109330370681528,"79":0.08296146936960071,"80":-0.02704046806033386,"81":-0.03409868525031029,"82":-0.06304021167639798,"83":-0.13251823287314377,"84":0.02781717299387065,"85":-0.04125349158382364,"86":-0.07696559132367113,"87":-0.15674276630219747,"88":0.05919789736135988,"89":-0.061499906150008374,"90":-0.021293157134568867,"91":-0.10816944754851389,"92":0.055127524215995136,"93":-0.07250807946592548,"94":-0.02848337223191379,"95":0.02054906355092323,"96":-0.16616368078126706,"97":0.046896621108031854,"98":0.03295870116903449,"99":-0.03404340255219536,"100":0.05735583022737372,"101":0.00009211913364439792,"102":0.09138687270396394,"103":-0.004615310697633959,"104":0.01622467776390376,"105":0.05617163500404853,"106":-0.0763237997482591,"107":-0.05134231882009246,"108":-0.002725396336466679,"109":-0.078797370228273,"110":0.00810865497131935,"111":-0.011668880636945081,"112":0.007384299642774312,"113":-0.028408448921666187,"114":-0.05680393223802631,"115":0.03593368577331378,"116":-0.12388257147565633,"117":0.028908854910458727,"118":0.01861331073393147,"119":0.029767102653369383,"120":-0.05820656367349242,"121":-0.023574750630219177,"122":0.0022993628301251332,"123":0.017944952632556986,"124":0.013115439660141587,"125":-0.04216037392753257,"126":0.11455904590078123,"127":-0.0380239684383684,"128":-0.022701313018012162,"129":0.11140346574980962,"130":-0.023369965288260287,"131":0.08406990101894204,"132":-0.0007140000371315703,"133":0.0681434740014119,"134":0.012617055204415448,"135":0.05880513179606287,"136":0.060352888060003725,"137":0.15276789382477232,"138":0.07962345342219511,"139":-0.04577639275390783,"140":-0.01567805310344014,"141":-0.0907138579398016,"142":0.06052679310503313,"143":-0.08628585075424232,"144":-0.024365697078238945,"145":0.17179885995479932,"146":0.11226017514913261,"147":-0.017040731148355928,"148":0.10846387312472894,"149":0.040650043016146394,"150":-0.07478546254709446,"151":0.05742012695123672,"152":-0.05360714642771378,"153":-0.11971123660439592,"154":-0.006730264471522174,"155":-0.08642722073374014,"156":-0.00996589648678572,"157":0.09996796877720594,"158":-0.02755118278710762,"159":0.09940424715230514,"160":-0.03033786648727299,"161":0.0693085065818625,"162":-0.0642317336535701,"163":-0.03942878864723448,"164":-0.045270265340991885,"165":-0.028383947124867234,"166":-0.047023485147431494,"167":-0.03807576887403811,"168":-0.021028946292369524,"169":-0.07633995315041472,"170":-0.028775383138956105,"171":-0.0429041445656976,"172":-0.0757071470737991,"173":-0.14933895042552675,"174":0.02539099907758647,"175":0.08226003105752072,"176":-0.06943758100509152,"177":0.020642070248420387,"178":0.05508109684557165,"179":-0.030993848686529706,"180":0.021512045068584694,"181":0.028202611235839,"182":0.08588766962141023,"183":-0.04136472367331479,"184":-0.05378546562359872,"185":0.05949419406041807,"186":0.052138619465187275,"187":0.03790236335810125,"188":-0.07283622360294598,"189":-0.020371064936043487,"190":0.030093306784443826,"191":0.0034758046750723044}},{"sx":1,"sy":1,"depth":192,"w":{"0":-0.009448504613761179,"1":0.023633023331080433,"2":-0.061167052914402054,"3":-0.034289233049401346,"4":0.03522962362516468,"5":0.04096863049308591,"6":0.02264893638281073,"7":-0.010582784196234082,"8":-0.031022401695628827,"9":0.18995080606152215,"10":0.04891929501100545,"11":0.00519349552575648,"12":0.05848449561508474,"13":-0.0428177758418832,"14":0.03846049622108061,"15":0.05726703277742014,"16":0.11706323690258585,"17":0.0032720642035456663,"18":0.11600331072963938,"19":-0.020077658303114247,"20":0.13808693074276635,"21":0.010087259559493526,"22":0.03940354358479127,"23":-0.02076821252954821,"24":-0.09766499971608425,"25":-0.012254333784976113,"26":0.017575478533271155,"27":-0.0015232739994951487,"28":0.10847837856676895,"29":0.05495878832569895,"30":-0.03141623565340854,"31":-0.0419583686722381,"32":0.014484780456642421,"33":0.03414345876699279,"34":-0.05847028907049199,"35":-0.10074520953013329,"36":-0.06241750619070517,"37":-0.01580677392605991,"38":0.03834669049995483,"39":0.002162951995153235,"40":-0.05380136378776958,"41":0.043235147329170415,"42":-0.09408828780252566,"43":0.04090452580029771,"44":0.021972257367415857,"45":0.0851437707032885,"46":0.07909186123461186,"47":0.05704618536981658,"48":-0.024584306458047118,"49":0.09595892960257872,"50":0.15237381323603774,"51":0.03425556802711644,"52":0.057346962582837266,"53":0.12354669099002613,"54":-0.03445168672190511,"55":-0.11055773215528959,"56":0.016219177099088464,"57":0.02869913220363484,"58":-0.02483073987297157,"59":-0.02912081893925928,"60":0.09696356306982447,"61":-0.06143952594152519,"62":-0.10974354525489607,"63":-0.0942278386832419,"64":0.15261042368902913,"65":0.03114981866916344,"66":0.01707119581388485,"67":-0.079729197315483,"68":0.012083550394893708,"69":0.06050199052074891,"70":0.03687915000426643,"71":0.0708945163898506,"72":-0.07787317723634354,"73":0.047814131306623965,"74":0.09205728047822131,"75":0.024854457018758255,"76":0.08257389119242932,"77":0.10615154008587477,"78":0.03416771154879325,"79":-0.07930363713630345,"80":0.09101408409004635,"81":0.006345669049033971,"82":-0.006891780658400239,"83":-0.1372408212578412,"84":-0.01527288493030507,"85":0.003385515140403007,"86":0.0729780790484094,"87":0.006220579556864715,"88":-0.022158001611650685,"89":0.04263041565712844,"90":0.07793065375747142,"91":-0.034661834658713586,"92":0.07134853426195156,"93":-0.06615391479090203,"94":-0.0366743568516595,"95":0.013037191322856894,"96":0.04741761296595676,"97":-0.006759555891927731,"98":-0.055524007616069584,"99":0.13698773721127186,"100":-0.012501567231970538,"101":-0.01153060718742259,"102":0.03589623806310597,"103":0.015970532658345967,"104":0.010879571447599845,"105":0.14213210898238948,"106":-0.08227304762839475,"107":0.06866728521930118,"108":-0.0051013770605558215,"109":0.016300988550262057,"110":-0.07090521343965375,"111":-0.04024294916382663,"112":0.019548246255458812,"113":-0.09563469514446638,"114":0.0029500202115158385,"115":0.1444673344708165,"116":0.015455575919261614,"117":-0.068662296871315,"118":0.043177734173596063,"119":-0.05444755930755577,"120":-0.043103995391767215,"121":0.02576831682446399,"122":-0.04752677389016253,"123":0.023588090115477234,"124":0.04302756537475354,"125":-0.11325315283677077,"126":-0.047649653852084715,"127":-0.10925687619013974,"128":0.04850757621483914,"129":-0.048998939743114575,"130":0.00018769376583595033,"131":0.03905626983126208,"132":-0.01962142972028126,"133":0.04943879215245634,"134":0.10430736319902638,"135":-0.01927999333184656,"136":0.012040483113205859,"137":-0.0018069103646770935,"138":0.08443078172163417,"139":-0.08783020070621163,"140":0.0017253656975456497,"141":0.11068679497293178,"142":-0.05212494740401684,"143":0.06576574156474407,"144":0.11803667980587218,"145":-0.02959738305513046,"146":-0.017957379818424993,"147":0.16954750847994762,"148":0.0783034843905199,"149":0.018246426401538687,"150":0.045408772798498115,"151":0.03279756800385588,"152":-0.010140193739381338,"153":0.0262486114768047,"154":0.014650280794454535,"155":0.009699361853556014,"156":0.03616556529821262,"157":0.05183844329241505,"158":-0.019559677242148094,"159":-0.054927862944187986,"160":-0.1389028286603221,"161":-0.06606499169687916,"162":0.002317124438552967,"163":-0.006404422705897229,"164":-0.11528907472717746,"165":0.012892843304649475,"166":-0.0015547038612503047,"167":0.011243725471307229,"168":0.1389154372668791,"169":-0.07694841252297004,"170":-0.038861854382706576,"171":-0.07990042555348525,"172":0.07248099684669022,"173":0.09530768962947385,"174":0.06800739123606171,"175":0.04400526755073024,"176":0.008724074736214725,"177":-0.0408293768947405,"178":-0.05898059618057608,"179":-0.0725774120326291,"180":0.0672548378261097,"181":-0.07181377030726636,"182":-0.03448162606874391,"183":0.08047476352159097,"184":-0.03871412121377123,"185":0.07555722178818339,"186":0.029468288268653175,"187":0.04337017897503362,"188":0.06439584084747639,"189":-0.053128773750824684,"190":0.03289344884868939,"191":0.015282733569349236}},{"sx":1,"sy":1,"depth":192,"w":{"0":0.05464284412114747,"1":-0.02608725003468212,"2":-0.06864796989758562,"3":0.05114085194775367,"4":-0.06052651680643321,"5":-0.07357331651263735,"6":0.12161538843878002,"7":-0.028183267065760003,"8":0.08183111816376648,"9":-0.012532758571996903,"10":-0.009223500336698472,"11":-0.019228470934789663,"12":0.014246499495478127,"13":0.059115154120696976,"14":-0.03178573436112406,"15":0.05349136213710541,"16":0.009287724450047982,"17":-0.00407416258708108,"18":0.05121048061067921,"19":-0.05111518430329583,"20":-0.04110021001401421,"21":0.03607682042764302,"22":0.056726488217349394,"23":0.037534481674359084,"24":0.012466879190154493,"25":-0.03149844211893057,"26":0.127917158531176,"27":-0.0864797274346786,"28":0.009733211227616783,"29":0.01627605871832289,"30":-0.0062597421366690316,"31":-0.015500819181227917,"32":-0.06196597161849439,"33":0.04153856084334659,"34":-0.11818891354964153,"35":0.00878176368221275,"36":0.05068456138812055,"37":0.0200359750138115,"38":-0.09034884390879229,"39":-0.015023379258080071,"40":-0.022773637941027654,"41":-0.17975144699634774,"42":-0.03039129837757649,"43":0.07495664851288802,"44":-0.02764978078604385,"45":-0.02771219031383558,"46":0.03588317013898583,"47":0.03792559900008343,"48":-0.029744640792217513,"49":-0.06632465998952282,"50":0.0796571822186606,"51":-0.04910692932216651,"52":-0.04670040260039839,"53":0.02211619220282963,"54":0.0649795109192018,"55":0.002372631740007114,"56":-0.005526635220083596,"57":-0.08406526769032072,"58":-0.11276488012245527,"59":-0.15213804041750503,"60":-0.0031486183854709184,"61":0.05311223694237476,"62":-0.0344841933437844,"63":0.07970950688736289,"64":-0.03329321312805029,"65":0.00007963848698969579,"66":0.10020396247539685,"67":0.03355686217797624,"68":-0.12130490930548075,"69":0.03587213661003988,"70":-0.047733671819662656,"71":0.08127529152306921,"72":0.034379350272353885,"73":-0.1001562108660273,"74":0.041915921430085476,"75":0.04883650771978015,"76":0.05782149762387024,"77":-0.08445488078992773,"78":-0.024178084010754854,"79":-0.09501675867512638,"80":-0.06298679185611614,"81":-0.0047539568802866935,"82":0.00435361950314312,"83":0.0008519234943455407,"84":-0.07668794518268598,"85":0.08428826294947427,"86":0.05652073771005068,"87":0.06078084763417295,"88":0.05363544799065433,"89":-0.055738845040815846,"90":-0.0802430681728587,"91":0.03096272176319899,"92":-0.009592501748777673,"93":-0.046892600124815,"94":0.08481982736925273,"95":0.05013821842423993,"96":0.05911716415958803,"97":-0.007889333570119405,"98":0.05751591057341672,"99":-0.052511111158323964,"100":0.03430227991595235,"101":-0.017666940036915966,"102":-0.004464761200379713,"103":-0.010184577247065837,"104":0.0306774861172971,"105":0.008611530972931583,"106":0.16563452231603665,"107":0.02389785235288399,"108":-0.002659070868404778,"109":-0.007691790902205164,"110":-0.0776437312388886,"111":-0.008408747262599534,"112":-0.034843181193879975,"113":0.013704965743300873,"114":0.030009163574753552,"115":0.05323759326849679,"116":0.06719164383653506,"117":-0.026297839609429854,"118":-0.04021290608703005,"119":0.06977798882036504,"120":-0.038779094065496206,"121":-0.09860023425345464,"122":-0.04099135175676522,"123":0.05281006644976884,"124":-0.06412427609926238,"125":0.04318365674577694,"126":0.06727829823596271,"127":0.09550886222860337,"128":0.09025992478786178,"129":0.025044218980529415,"130":0.06404023828402847,"131":-0.14076007833191012,"132":-0.12603392594246837,"133":-0.040004978699672344,"134":0.017068450042742177,"135":-0.18152807857770223,"136":0.09300551952074054,"137":0.01446038501839299,"138":-0.03578033717779727,"139":-0.026638715072977114,"140":-0.014951223437293572,"141":0.07571643004051903,"142":-0.03653410077494503,"143":0.05899091231013779,"144":-0.02550327903116092,"145":-0.08033259659573852,"146":-0.046881948207918474,"147":-0.10449313244610961,"148":-0.04841762412779455,"149":0.0221523526753286,"150":-0.009797292652505493,"151":-0.055218297004632495,"152":-0.07342026404535905,"153":-0.0017210022634405,"154":-0.04696214788723336,"155":-0.0680797547669225,"156":0.0686475364295041,"157":-0.04860830553456567,"158":0.06104587411314593,"159":0.16536211235948525,"160":0.058864856128397994,"161":0.10317189800074811,"162":-0.01600215314646991,"163":0.016677836142933396,"164":0.037952544890858544,"165":0.07981834356595684,"166":0.10683947721794924,"167":-0.0037623862313363597,"168":-0.06941813104887112,"169":0.03061524182867209,"170":0.13308186781029793,"171":0.06513034672147605,"172":0.060411557896127815,"173":-0.06656009604599006,"174":0.09502876935772266,"175":0.043538298497899766,"176":0.04306769217457233,"177":0.028575583603941294,"178":-0.0918352846074124,"179":-0.07375970357361908,"180":-0.12279717950722957,"181":0.021077911457186592,"182":-0.007062241294383955,"183":-0.09381943750885811,"184":0.03306891701012323,"185":0.04442775436233095,"186":-0.06862507478617803,"187":0.021217073741726867,"188":-0.09921074572864642,"189":0.12327223617516589,"190":-0.01996060343607499,"191":0.023299055174691552}},{"sx":1,"sy":1,"depth":192,"w":{"0":0.11310306515499997,"1":0.009768965165065915,"2":0.042280512013196665,"3":-0.01563453323880625,"4":-0.051185307159401956,"5":0.06423180627357114,"6":0.015232990659742646,"7":-0.1283443746902799,"8":-0.06411543645664036,"9":-0.08907324346494908,"10":0.06648672784779112,"11":-0.006159831429031819,"12":-0.08727255409230417,"13":-0.014030272107917076,"14":-0.0430886050050683,"15":-0.06241314663417331,"16":-0.1329752108905046,"17":0.09183388860122042,"18":0.09509876728306968,"19":0.04458454588312466,"20":-0.0710111971124553,"21":-0.05435027452375788,"22":0.08500984512286924,"23":0.004410032925891982,"24":0.04285628705579003,"25":0.014065087706469253,"26":0.015644778401685006,"27":-0.12407055759063658,"28":-0.012033864434007434,"29":-0.0659174568987549,"30":-0.03866500196553955,"31":0.04891099345858371,"32":0.0009071789841872628,"33":0.05234203427369068,"34":-0.009856950360991747,"35":0.04419267979723539,"36":0.01048680932333973,"37":-0.01706634511108665,"38":-0.05278167709313056,"39":0.131026605515686,"40":-0.06257185470431606,"41":0.035861935493292654,"42":-0.036826200792568854,"43":-0.13320249296566725,"44":0.09252488790351082,"45":0.013173017895526573,"46":-0.03340749177897392,"47":0.07996789911279674,"48":-0.03428614470912056,"49":-0.02548735778987075,"50":-0.05387648506507344,"51":0.021806585217500632,"52":-0.07108638046036962,"53":-0.10947772742382299,"54":-0.1041866639057713,"55":0.030902373937020288,"56":0.014266112948321117,"57":0.07202413931524138,"58":0.00026590725450874835,"59":-0.005723679866293031,"60":-0.032866436206575415,"61":0.022834573036037156,"62":-0.047141814707098696,"63":-0.010541132629933999,"64":0.004320338717501414,"65":0.0036383606894464476,"66":0.2694532645083904,"67":0.05326898163637887,"68":-0.012666215036609309,"69":0.03890134948732624,"70":0.07311980115540345,"71":0.011309394652885565,"72":0.05571668028242398,"73":-0.007452009627119349,"74":0.07600648494501597,"75":-0.030233243377331402,"76":0.11758044961781323,"77":-0.02983317568458076,"78":0.007591079514326701,"79":0.0968063693961977,"80":-0.10072585667772416,"81":-0.004206642657810434,"82":0.11771696925828135,"83":-0.016041900830693786,"84":0.042846838542168565,"85":0.053912951353173796,"86":0.005908569732689588,"87":0.03375622385629735,"88":0.014017602991246351,"89":-0.03909504619804801,"90":-0.06979124243530212,"91":0.058162853257606326,"92":0.0116749861051872,"93":0.11176432214517396,"94":-0.1382914544447629,"95":-0.026577478083081058,"96":-0.014236739351895848,"97":-0.019480304188911095,"98":0.08552966837670586,"99":-0.006950004664799393,"100":0.018793922074853142,"101":0.01998523746493447,"102":0.044013333422679976,"103":-0.0051899765948628905,"104":-0.07178026404903508,"105":-0.0021640494775717646,"106":0.1054738963977467,"107":0.041964165786021884,"108":0.04006298589844902,"109":0.04105200299829861,"110":-0.016390803649060738,"111":0.022708523375042023,"112":0.002845800289841861,"113":0.007486699956021036,"114":-0.06022434966534647,"115":0.026273728477473342,"116":0.08569853866430652,"117":-0.060302846968304034,"118":0.004069326584827999,"119":-0.06749144344244444,"120":-0.056810313741121984,"121":-0.00351474528831062,"122":-0.07507772177713581,"123":-0.07508026832447458,"124":0.005107758931810762,"125":-0.01379037979436872,"126":0.0024012709502349992,"127":0.028949139897054662,"128":-0.09908839256040976,"129":-0.02286381602081822,"130":0.08050139054812988,"131":-0.0028359847866904174,"132":0.0003901285167837065,"133":0.11143705499735654,"134":0.042224545414922376,"135":0.17337257523265642,"136":-0.013213602809662814,"137":-0.001029744016346543,"138":0.08043121463142883,"139":0.05513752784770114,"140":0.056121030164633746,"141":0.06754500804621918,"142":0.05898826821424991,"143":-0.04255580178320997,"144":0.01231623521832317,"145":0.00007124140583311525,"146":0.06163312863591686,"147":-0.004448292009037024,"148":-0.05791306849885369,"149":0.032404593425175716,"150":-0.03373585897022158,"151":0.07757061314092033,"152":0.012255413260367713,"153":0.10185659007937568,"154":0.06766401159820733,"155":-0.022752852311482767,"156":-0.018660257467265292,"157":-0.08560465939617182,"158":0.06079506771487531,"159":0.1293712602177495,"160":-0.15424173174855837,"161":-0.025022309846035526,"162":-0.015751081054076112,"163":0.05069499582592241,"164":-0.0910525580348193,"165":0.03227030988748075,"166":0.1051525105237416,"167":0.04198156261252124,"168":0.025947747424511104,"169":0.021792617320640414,"170":0.015052722760865198,"171":0.06656515094520137,"172":0.011407134366302897,"173":0.06452274117363799,"174":0.02738825967945657,"175":0.09848727244034824,"176":-0.009521939338072728,"177":-0.05452860282423599,"178":-0.06079281086236492,"179":0.21858863348283805,"180":0.07851630871805382,"181":-0.012187402943111708,"182":0.005655637146355633,"183":-0.01421288402420632,"184":-0.055639847993568546,"185":-0.009500309392328467,"186":0.012203207509167813,"187":-0.06219799370350739,"188":0.03347956271281607,"189":0.037831817247652215,"190":-0.022105496739255232,"191":0.08978933036677018}},{"sx":1,"sy":1,"depth":192,"w":{"0":-0.032183869075900255,"1":-0.05687376563503322,"2":0.012488313637856272,"3":0.05370571837908371,"4":0.07496413589776367,"5":-0.09236857520082094,"6":0.15584153375562002,"7":0.0321568211349932,"8":-0.021155258552994854,"9":-0.016684735777331875,"10":-0.09378625968528698,"11":-0.04425577506294773,"12":-0.055292250408819583,"13":-0.0043270133272670834,"14":0.038613788324129844,"15":0.06200780121918,"16":0.06558484773511082,"17":0.02753221155164095,"18":-0.04838414006994991,"19":0.03514974653815546,"20":0.006119064955501113,"21":0.0541374315469496,"22":0.0024093610790447287,"23":0.005413984508579657,"24":0.023831402128223468,"25":-0.018590178479275285,"26":0.10109731778753524,"27":0.09008810912026932,"28":0.013486998214026769,"29":-0.001518212115999129,"30":-0.08625165977299776,"31":-0.02707351169177207,"32":-0.06898310052047853,"33":0.033360267481931584,"34":-0.011015776955317587,"35":0.026795568431621165,"36":-0.008452371575708778,"37":-0.0042987566314408735,"38":0.01400509968089326,"39":-0.0017527529578912112,"40":0.032966328042142695,"41":0.05753625019754951,"42":0.13389592937945363,"43":0.07907245328595386,"44":0.01648215348621386,"45":0.07395671542673286,"46":0.049327051052360175,"47":0.031864179858357176,"48":0.060723918244435265,"49":-0.01888634002543086,"50":0.02959833295657582,"51":0.002748351946904808,"52":-0.06399292476982715,"53":0.046846457389920854,"54":0.052612813394897526,"55":0.05008796145664207,"56":0.05275786849117772,"57":0.054519975870810936,"58":-0.1674788193373872,"59":-0.04060562987648483,"60":0.01465208454190428,"61":0.11897817616598177,"62":0.03161441434146877,"63":0.004688662967974133,"64":-0.035096647188623036,"65":-0.001421722054306648,"66":0.09258532006664066,"67":0.07509356642338227,"68":0.0894577154071479,"69":-0.05929590176280745,"70":-0.102590047547912,"71":0.11025303503979582,"72":0.08887244052338507,"73":0.06557063262848327,"74":0.033295564054140234,"75":-0.044041497775627325,"76":0.07533372472503364,"77":-0.10487851957532106,"78":0.02897541272239943,"79":-0.048563711360138914,"80":-0.06436951830973145,"81":0.03883819169362412,"82":-0.023901153280462644,"83":-0.010426579998173086,"84":0.008114825096690596,"85":0.012192783950425924,"86":-0.06296544631201947,"87":-0.09247009703520885,"88":-0.08915730908050971,"89":0.1202603688493095,"90":0.03620124475171521,"91":-0.005868824160327034,"92":-0.018922854883243183,"93":0.0041635731517403185,"94":-0.06471697914658109,"95":0.038206385532475795,"96":0.16799660399031313,"97":-0.039053913876049486,"98":-0.021843087334018223,"99":0.04920238580288974,"100":-0.011693540574275461,"101":-0.021172762728754253,"102":0.10919391497955037,"103":0.006780874009495301,"104":0.09776565888838577,"105":0.03842857177614996,"106":-0.07234208025460628,"107":0.1311503209300945,"108":-0.051426750718941934,"109":-0.07266778536113262,"110":0.07531295474690156,"111":-0.0719889380058816,"112":-0.12185928197625402,"113":0.04051008715968157,"114":-0.08031772682076886,"115":0.04608237937129067,"116":0.046719410498160606,"117":0.03820263516484559,"118":0.03255499791145297,"119":-0.053628720991570775,"120":-0.00597637615687787,"121":-0.04647836173148602,"122":-0.05766271523641027,"123":-0.028855386047485696,"124":0.12246755489479975,"125":-0.1431174864672471,"126":0.021655558965986185,"127":0.08549954252326981,"128":-0.17313190725412086,"129":-0.023678548490728438,"130":-0.007772136436400322,"131":0.02067580161151276,"132":-0.05177826438428596,"133":0.07998896847710817,"134":-0.04922855343504411,"135":-0.00035163872689672004,"136":-0.0794655048044821,"137":0.06952894648061482,"138":-0.003621294229629722,"139":0.04098578604739147,"140":0.008981011724664189,"141":0.03398301601571986,"142":-0.009142806770202011,"143":-0.01281369059059953,"144":-0.09082872605007734,"145":0.042509430085993796,"146":0.010417783405429511,"147":0.025854230423398055,"148":0.002408731297738271,"149":-0.016615368110530573,"150":-0.06063898106770563,"151":-0.021712888659158564,"152":-0.06884334889735612,"153":-0.03864726791917724,"154":0.0012115930240198653,"155":0.007041590615820657,"156":-0.08889935836248387,"157":-0.012419298212895433,"158":-0.06372856963992686,"159":0.06575855748665844,"160":-0.04852450125652035,"161":-0.057049771971560394,"162":0.017566529999909524,"163":0.0011109398398375019,"164":0.12346445099485176,"165":0.17343579703590437,"166":0.13912087664611106,"167":-0.005854799126528663,"168":0.023903128957230946,"169":0.09073935155096687,"170":-0.05908331617978973,"171":0.0497774966190876,"172":0.021827283758511458,"173":-0.032571678045066575,"174":-0.07420073760784474,"175":0.0014834531127288332,"176":-0.024543454358003827,"177":0.07829509772587406,"178":-0.03723921571605891,"179":-0.028225558459439918,"180":0.07844431845734437,"181":-0.04086925413338674,"182":-0.03967687005205194,"183":0.013262620848468246,"184":-0.0946092691200133,"185":0.1256024143199894,"186":-0.11231989700733211,"187":-0.08849730755537595,"188":-0.04280413042847847,"189":-0.07341519736564116,"190":-0.044461926754133005,"191":-0.003550932389832446}},{"sx":1,"sy":1,"depth":192,"w":{"0":-0.009594210383890467,"1":0.003461068260746529,"2":0.07985603891550724,"3":0.017395809038225445,"4":-0.0454832459000757,"5":-0.14697797683368424,"6":-0.013096672377273388,"7":-0.14487192295466225,"8":-0.055766119177174125,"9":0.03215316953419824,"10":0.03147837983136885,"11":0.0018835659615810364,"12":0.04807764886843032,"13":0.06498813305053866,"14":-0.007683941496517905,"15":0.1269380830484861,"16":0.018374608975128083,"17":-0.020253280330771402,"18":0.020358042138448027,"19":-0.06429713056395339,"20":0.03594121235008522,"21":0.018030978627880875,"22":-0.03543480052402568,"23":-0.027683048939348864,"24":0.04944163121008152,"25":0.034058762828755695,"26":-0.06763235648526135,"27":0.004214001694477204,"28":0.08316196948011308,"29":0.003400462054705684,"30":0.018191462373738598,"31":0.051652467491436725,"32":0.014470468824354581,"33":-0.10368660775776985,"34":-0.026939155285571083,"35":-0.07380269211946437,"36":-0.027186356230848804,"37":-0.012557501020519217,"38":0.061180066318458085,"39":-0.13871202217894668,"40":-0.04236156515986854,"41":-0.00039420843513286106,"42":-0.05979744070893228,"43":-0.04767420863367352,"44":-0.04742863563304135,"45":0.027168535915471973,"46":-0.03346154254610383,"47":-0.10748036792753692,"48":-0.029933034697599618,"49":0.01449535533459918,"50":0.0027472282513811034,"51":-0.05392353468753277,"52":-0.0007136765249102843,"53":-0.04912373797603741,"54":0.007259681250995242,"55":0.020431573074791563,"56":-0.023006373789478066,"57":-0.09103546110951662,"58":0.01555149793121224,"59":-0.05150865932216902,"60":-0.06441979806486038,"61":-0.011558965329161707,"62":0.14635581308446896,"63":0.03666420060931712,"64":-0.06478707352436316,"65":0.003878738244769921,"66":-0.08397311957759429,"67":0.1632388325409034,"68":0.07925331283859768,"69":0.07222380883834044,"70":0.051540846602933864,"71":0.00862997765120499,"72":-0.04324228397471359,"73":-0.02781283780756865,"74":-0.021693781000603006,"75":0.003170669538906767,"76":-0.08036801029142193,"77":-0.012039823579655183,"78":-0.014972666112502208,"79":0.03397951929908161,"80":-0.011671291363531082,"81":-0.03964433043898964,"82":0.03478955917782426,"83":-0.03496315941607087,"84":-0.14261569471003224,"85":0.007623815437850535,"86":0.19400166622812562,"87":-0.05937423443755976,"88":0.0590616329331963,"89":-0.022651466002535092,"90":-0.07972193898747444,"91":-0.029230328569590146,"92":-0.024905622438759774,"93":0.03185173611477272,"94":-0.01562976696418399,"95":-0.015385273887407012,"96":0.0025078005338584164,"97":-0.007290659947192657,"98":-0.06325245361604463,"99":-0.00022206043854217287,"100":-0.053455063861434116,"101":0.08808510339916062,"102":0.04408861589423689,"103":-0.0774928968319438,"104":-0.03984313623361439,"105":0.014297280188486451,"106":-0.06615683594893364,"107":-0.08270842682015331,"108":0.09860331571779755,"109":0.11439834328765115,"110":-0.006173604070251197,"111":-0.11188968921968358,"112":-0.02176653189566072,"113":-0.10358725924929484,"114":0.019918302304765375,"115":-0.07961911403234771,"116":0.045247100120840114,"117":0.05799885892050365,"118":0.03808651046522117,"119":-0.03724819579296792,"120":-0.0003544598501873261,"121":0.017105943908607122,"122":0.03482821365150445,"123":-0.1678564881209906,"124":-0.08570803616305893,"125":0.15096406664744216,"126":-0.01571692535188623,"127":-0.012921223083400962,"128":-0.004242866222166013,"129":0.05856144342526649,"130":0.06654491492120355,"131":0.015050849131056324,"132":0.0942321359675955,"133":0.014327262067146017,"134":-0.026450253413931722,"135":0.1343401549793192,"136":0.01866748973858348,"137":0.09548059912936933,"138":0.08554914611288643,"139":0.048464074226779244,"140":0.027925922456158384,"141":-0.03853016603542497,"142":0.0440533253293591,"143":0.049217366278946115,"144":0.02500728236007489,"145":0.07547230057533083,"146":-0.01948204650170469,"147":0.08664272836354434,"148":-0.06652322348106857,"149":0.007462236830308347,"150":0.06153313286609909,"151":-0.06701415753506332,"152":-0.019927670004692467,"153":0.03866428312757685,"154":0.015431084854986794,"155":-0.012962924320149252,"156":0.024773674978088293,"157":-0.07325958496410079,"158":0.08827079157295971,"159":0.0383586024197559,"160":-0.028124604923573545,"161":0.006605406388729083,"162":0.001595700267906661,"163":-0.008949450119898221,"164":0.004072894632437923,"165":0.06295298965948773,"166":-0.007636010214245973,"167":0.015194323731959159,"168":0.057374048497080804,"169":-0.024646029872158356,"170":-0.11333388393717073,"171":0.09584478923443197,"172":0.015207688930077862,"173":0.0004373797963637519,"174":0.07969162974935734,"175":-0.0012257185855663263,"176":-0.05386248864195577,"177":0.016766590240862366,"178":0.06666421787448644,"179":0.09506480698452506,"180":-0.03725096084874953,"181":-0.018880841486487256,"182":-0.04145731462452394,"183":-0.0051185756353879595,"184":0.05169808428018787,"185":-0.06271341998761391,"186":0.04772617303423413,"187":0.003779534151048444,"188":-0.016068592534717763,"189":-0.03757696460153614,"190":-0.11486619635980408,"191":-0.002731425046093108}},{"sx":1,"sy":1,"depth":192,"w":{"0":-0.00967797535248041,"1":-0.002583749753187833,"2":-0.043139985269133894,"3":-0.12616026964745747,"4":0.009028659065737205,"5":-0.10821982659605979,"6":-0.014997727375567088,"7":0.0054544440939182275,"8":-0.014311132144939991,"9":-0.012987123384727288,"10":-0.05873866760018347,"11":0.0820654512516125,"12":-0.04211445161974616,"13":-0.06390464527854228,"14":0.031630836967259,"15":-0.1123764866759086,"16":-0.011046214003689036,"17":0.017922976878468957,"18":-0.05696940571816861,"19":0.0648090203259779,"20":-0.0025677640208311837,"21":0.0037457372325798402,"22":-0.030892331754147916,"23":0.05944998142116843,"24":0.058985138253173613,"25":-0.06167511283244245,"26":0.02596499919574273,"27":-0.09612375877658696,"28":0.04991776146917942,"29":0.03614548865353869,"30":0.010720897847940333,"31":-0.018027678436097462,"32":0.0028427718957168505,"33":0.07455011265552482,"34":-0.01104677568039703,"35":0.030958402855635267,"36":-0.007837624546992251,"37":0.0087027697820669,"38":0.08138809799015731,"39":-0.14774588678207837,"40":0.11078591197528592,"41":0.053942068451996915,"42":-0.0016131729966897888,"43":0.07304296273265297,"44":0.0670351039773061,"45":0.1279326814076269,"46":-0.02762808474722761,"47":0.046984587388469536,"48":-0.0114914780474422,"49":0.04215960995042702,"50":-0.006215279858069346,"51":-0.02862843405086374,"52":-0.12618503993618616,"53":-0.022225163265895024,"54":0.005501725964643117,"55":-0.050172755018507535,"56":-0.025654094652611988,"57":-0.05003619212050772,"58":-0.042999810786511966,"59":-0.04633134345288511,"60":0.018731430289973292,"61":-0.021160924541237004,"62":0.12117735602806266,"63":-0.02687316289846415,"64":0.10132141125271361,"65":0.027888364105651667,"66":0.11892268300886027,"67":-0.11907712736274752,"68":0.0035604926841586245,"69":0.026120209161931467,"70":-0.06957212627426,"71":-0.038014443900721846,"72":-0.024062879238193526,"73":-0.08462971279994615,"74":0.018889472133309958,"75":-0.03781163116803141,"76":-0.026010242603977947,"77":-0.05200711216637599,"78":0.009684334071299342,"79":-0.06257902030062003,"80":0.04838863753261331,"81":-0.00007240007800048145,"82":0.007881393181552013,"83":-0.057868074707721845,"84":-0.06519549808665943,"85":-0.08314549043802683,"86":0.09195523882225845,"87":-0.0054070521988169185,"88":0.0735439914503052,"89":-0.04225973245699824,"90":0.021321627632493515,"91":0.006062499318905123,"92":-0.08750672606429823,"93":0.008085606329390335,"94":0.07981844318569904,"95":-0.07526185057806786,"96":-0.015580508702303123,"97":-0.023901646207850433,"98":0.060470989931057186,"99":0.01658056949111736,"100":0.030226339886352108,"101":-0.008252995470511615,"102":0.05896403583614429,"103":-0.05956070836385524,"104":0.10883683517970873,"105":-0.06272831860726202,"106":0.040180182544364215,"107":0.12049817075274957,"108":-0.05047479477370892,"109":-0.11994921091716486,"110":0.07619405571745838,"111":-0.07774881544998338,"112":-0.13088330556100933,"113":0.03877650013619147,"114":0.03927535323865965,"115":0.025163232123026697,"116":-0.0272223732824793,"117":0.023193737786844894,"118":0.06826571055588275,"119":0.000682633935488281,"120":0.03937575128690418,"121":-0.10434766062454617,"122":-0.11628605327999893,"123":0.020291830636454542,"124":-0.03475513703514918,"125":0.008714259811344119,"126":-0.0894355947637178,"127":-0.04965188028105516,"128":0.018948798189046837,"129":-0.10057238399007522,"130":0.02567968605335771,"131":-0.020238957806007044,"132":-0.011257628982998223,"133":-0.05413087173840463,"134":0.046376597181318605,"135":0.044093751461267344,"136":-0.16973944553134215,"137":0.0326976666780385,"138":0.07287729209651993,"139":0.024392404672558654,"140":-0.05297890089787056,"141":0.023844961261004487,"142":0.05552766651304244,"143":-0.022342811167946428,"144":0.011603082214755835,"145":-0.15311114269291626,"146":-0.06082931479478127,"147":-0.055950270023715075,"148":-0.08698779322055235,"149":0.02148092947062851,"150":-0.04903333924442782,"151":-0.13357672493888423,"152":0.08582102237850546,"153":-0.0028899791598751006,"154":-0.01551091080069065,"155":-0.034534985611982205,"156":0.031212886977058128,"157":0.048124749824938876,"158":0.10289409721214816,"159":-0.08745194531651226,"160":-0.03824407014996853,"161":-0.011476469197986236,"162":0.04486039913891781,"163":-0.06887334102248448,"164":-0.029168496404086582,"165":-0.05966334126830683,"166":-0.09316152189931426,"167":-0.05192748207234774,"168":0.0003789622926010856,"169":-0.01812200214206949,"170":0.08681369216041454,"171":-0.002623920849929393,"172":-0.019848876361790224,"173":0.10559760386805896,"174":0.07142755718118192,"175":-0.0027753274375972637,"176":0.05276698610920049,"177":0.06963134356986145,"178":-0.04317479142442618,"179":0.10175106764356799,"180":-0.029048897187120493,"181":0.06402192804633974,"182":0.06941222142891311,"183":-0.009991661856362929,"184":0.021888763600809283,"185":-0.012402642103371839,"186":-0.09853231844390455,"187":-0.060960102602819685,"188":0.018078865240442336,"189":0.041309656327878995,"190":0.02904719959363213,"191":-0.14504328989534512}},{"sx":1,"sy":1,"depth":192,"w":{"0":0.024776330693151567,"1":-0.06327621802224302,"2":-0.06664674183213898,"3":-0.10613575669071834,"4":-0.08946914782433589,"5":-0.06766215687506318,"6":-0.23250416374865643,"7":-0.11035450414735488,"8":-0.163930111141997,"9":0.009155954734745769,"10":-0.2066507300575401,"11":-0.06560229678686202,"12":0.06394051506241633,"13":0.01962975853303667,"14":-0.03354218968813243,"15":0.10202226896332837,"16":0.033120677667826365,"17":-0.10864627841604534,"18":-0.015488960934443047,"19":0.017212511172966575,"20":-0.006665712750350651,"21":-0.011742185418203693,"22":-0.047483970319131506,"23":-0.008065456640132402,"24":-0.03514197549595868,"25":-0.11320803441437084,"26":-0.06580418110363755,"27":0.033680968247833905,"28":-0.08075800990534195,"29":-0.008115748473031762,"30":0.0925575132466377,"31":0.06276930797382384,"32":0.08258024531433736,"33":-0.02098078560438427,"34":-0.008581753900615765,"35":0.07837215169055224,"36":-0.004856160207983193,"37":-0.07884262108147029,"38":-0.012842611012979479,"39":-0.07376626600839845,"40":0.03424578476649751,"41":-0.0021366352263243256,"42":-0.013964277535093208,"43":0.015588497641556077,"44":0.13812947001242223,"45":0.0032671914639368646,"46":-0.055476565558611336,"47":-0.01734793483027627,"48":0.0524597150839417,"49":0.0854488594716549,"50":0.07061592361533645,"51":0.12113400488774437,"52":-0.11921945215510271,"53":-0.03890773890543158,"54":-0.014157256357976315,"55":0.05138079386645461,"56":-0.01591843419515575,"57":-0.09630757135626251,"58":0.06065445661781826,"59":-0.01979520744906227,"60":0.01814054953375692,"61":0.0280097896796321,"62":0.025084208466655912,"63":0.0017496846147343373,"64":0.010822049735950917,"65":0.015928063843426515,"66":0.04448430361332995,"67":-0.020257050393703378,"68":0.1094564184945796,"69":-0.04305594158086973,"70":0.019233907589875573,"71":0.04697832876444931,"72":-0.0048022908971783445,"73":-0.05204971136224424,"74":0.03377354390274715,"75":-0.06165020118034391,"76":-0.01961629983983155,"77":0.10019570949027701,"78":-0.0034204431006654534,"79":0.08767609955999589,"80":-0.0845231155444623,"81":-0.08008114967500429,"82":0.05048942104998813,"83":0.06528217808105218,"84":-0.04162827488642491,"85":-0.02163209732473364,"86":0.014611661522561914,"87":-0.0255128743296785,"88":0.0014820011286872576,"89":-0.09068492264301467,"90":0.09932279244822291,"91":0.07739545547893868,"92":-0.027210086521497916,"93":-0.022753181812399537,"94":-0.07104740675396128,"95":0.028647566675921332,"96":0.06030826803645456,"97":-0.0023767178603557714,"98":0.024678286935474435,"99":0.07067347071625193,"100":0.0039009504920905123,"101":-0.0016015570647671643,"102":0.0353887318522443,"103":0.03609153298151536,"104":-0.008846185278882769,"105":0.08024531190324487,"106":0.16175202645204428,"107":0.010438906170165208,"108":-0.09596192884688542,"109":0.07089946186423426,"110":0.05877812967422792,"111":-0.016186727805288893,"112":0.04969099283260513,"113":-0.07412570659761636,"114":-0.03955248100997411,"115":-0.016905492833228175,"116":-0.030162374338279344,"117":0.035727942763720794,"118":0.10681191302557129,"119":-0.00043702985175445973,"120":0.05408372571357876,"121":0.05958712337480269,"122":0.09317277149818477,"123":0.03843122664877285,"124":-0.0001958427409441087,"125":-0.020046714018804715,"126":0.025137234610019484,"127":-0.055520525770867045,"128":-0.03389508536182714,"129":-0.02796628913414118,"130":0.15137266467470362,"131":0.13996386166301797,"132":0.25502169316419404,"133":0.08542009204711887,"134":0.06836118766042226,"135":0.13695968688494042,"136":0.05599856643702025,"137":0.18500087101450166,"138":-0.006366260704460381,"139":0.05942212336481129,"140":0.051856810525205584,"141":0.004530757266372107,"142":-0.022283892006929675,"143":0.013678668135568589,"144":-0.013059155231871001,"145":-0.06359705030046416,"146":0.044184116080392195,"147":-0.06435656521853911,"148":-0.01539553455861906,"149":-0.04132416958657934,"150":-0.005787506529346922,"151":0.09297447385934755,"152":0.033975827705369215,"153":0.13768715314563498,"154":0.06553265941677246,"155":-0.05192736770199536,"156":-0.010293235167045346,"157":-0.0011991227250306709,"158":-0.04984857311653149,"159":0.009914333079037083,"160":0.047955781419657374,"161":0.0857616286994101,"162":-0.03264002432179851,"163":-0.029954159549858993,"164":0.03979240841219135,"165":-0.07046432439940217,"166":-0.007193739544418194,"167":0.07937284781044895,"168":0.06621036820768526,"169":0.019789044110689852,"170":0.10209573426183112,"171":-0.07112780191551578,"172":0.06595850851252304,"173":0.009842442195948747,"174":-0.06040244328244864,"175":-0.008037395447437003,"176":-0.035757401573499416,"177":0.00578683706108156,"178":0.02731935019545463,"179":-0.04396227047175699,"180":0.09671028014041701,"181":0.0021073177286292356,"182":-0.0555613077056068,"183":-0.0987760406233605,"184":0.06103203912502288,"185":0.01992905489960387,"186":0.011252642410966084,"187":0.06263219979896696,"188":0.015813136011679635,"189":0.08085355230553255,"190":0.06072526038581416,"191":-0.022144817007841305}},{"sx":1,"sy":1,"depth":192,"w":{"0":-0.016224476511986535,"1":-0.03781268025649889,"2":0.10278820879280748,"3":0.024372039629132435,"4":0.05749169524136527,"5":0.032471719441679266,"6":0.0323876449199015,"7":0.1293670639621551,"8":0.1323052038652217,"9":0.14207690435399947,"10":0.10012510444538264,"11":-0.033365201414778084,"12":0.058926098375559594,"13":0.0017302390833371455,"14":-0.0031799643991238602,"15":-0.019040765159416738,"16":0.039786382135068535,"17":-0.029547051042787202,"18":-0.062419063987705393,"19":0.05316069878111665,"20":0.04516422367657052,"21":-0.05843194756576864,"22":-0.019647522463827123,"23":0.03195579760890695,"24":0.09442508886583081,"25":-0.07510517825980485,"26":0.0207096281001181,"27":0.03154230318377446,"28":0.023818614182230455,"29":0.030660249468785226,"30":0.0887328711386328,"31":0.15659375388905972,"32":-0.04875233491152652,"33":0.05549783097073611,"34":-0.10091332942429956,"35":-0.10907935859767785,"36":0.005035735175505792,"37":0.028350495831443594,"38":0.0024554953725757288,"39":-0.04041106539414968,"40":-0.028157525718098837,"41":-0.035031355976928136,"42":0.058460486630922355,"43":0.05750622428452905,"44":0.01813265713889368,"45":0.03335491443883654,"46":-0.02276396351460233,"47":-0.06669269721409214,"48":0.03919087108951789,"49":0.059424494622065685,"50":-0.007338812072993878,"51":-0.0612022857698929,"52":-0.07527264550904313,"53":0.06295974913505029,"54":0.017909738586981763,"55":-0.06998750928700775,"56":0.06778909006527489,"57":-0.05135224618082076,"58":0.2023613014963863,"59":-0.05335812936460219,"60":0.001961835521459506,"61":0.11396373833457918,"62":-0.012011266882080988,"63":0.04483559431011004,"64":0.0038952551106376993,"65":-0.040196725607855754,"66":-0.0005195098606137292,"67":-0.046251436476736685,"68":0.0389922919308223,"69":-0.07799991757127704,"70":0.09174937771769101,"71":-0.08077524160418144,"72":-0.06172524057870904,"73":0.011477599282153403,"74":0.056458643050047705,"75":-0.08040090210434735,"76":0.007050043456199783,"77":0.009492030908569133,"78":-0.004865914000272115,"79":-0.028937769868031434,"80":-0.05877427618131868,"81":0.015954783857265717,"82":0.036695176201026254,"83":-0.023182867484903846,"84":0.021021132497511832,"85":0.07354282558636988,"86":-0.029440408182840258,"87":0.04851088567114059,"88":0.02885628039263194,"89":-0.08147755534622095,"90":0.04145419760287581,"91":0.026792231857607873,"92":-0.000710865366364662,"93":0.02633843400550626,"94":-0.12264433145854096,"95":0.0258254610715139,"96":0.012626804784819373,"97":-0.04445484669949927,"98":-0.056081001706298754,"99":-0.03179293797670669,"100":-0.02946537825223115,"101":0.008452897776704299,"102":0.0009285508530387399,"103":0.040190104422231594,"104":-0.09283424145021767,"105":-0.028012115945762767,"106":0.007403564103870451,"107":-0.02423681633967614,"108":-0.06769199061550396,"109":0.01608066925253333,"110":0.04839374895662159,"111":-0.17425490598895424,"112":-0.004317124883428634,"113":-0.04757399091401235,"114":-0.09653982522414177,"115":0.0154516646764329,"116":-0.07303151385481904,"117":-0.0026653920801078955,"118":0.07321089026238663,"119":-0.017298701602455283,"120":0.008690654622974489,"121":-0.018913205842471303,"122":-0.15191579955968695,"123":0.01347643292621659,"124":-0.04033599827099255,"125":0.004462324475961946,"126":-0.14251402371130026,"127":0.00867042583397675,"128":0.01610432797694454,"129":-0.059930224198543616,"130":-0.02786576756146053,"131":-0.1027456679868304,"132":-0.0353450243231203,"133":-0.06229168017175768,"134":-0.039850906460072284,"135":-0.04528354142069534,"136":-0.12765646093799402,"137":-0.0383226307216747,"138":-0.07105193697281474,"139":0.01751037913523311,"140":-0.06084743301935876,"141":-0.1391118834151477,"142":-0.05692909327819058,"143":-0.06297410112189746,"144":0.03445019954724421,"145":0.09655846594921672,"146":0.012055269155545618,"147":-0.005062990851120677,"148":-0.14166427098282058,"149":-0.1273697267264719,"150":0.0661867405940073,"151":-0.1272832804993195,"152":-0.04147232565458942,"153":-0.08565404268530578,"154":-0.06037786363327102,"155":-0.07890063494070247,"156":-0.055165552914286625,"157":-0.026242262669861252,"158":-0.029704908736979667,"159":-0.07535775891101998,"160":0.0815031745480285,"161":-0.044893029454996895,"162":-0.01762329970526991,"163":0.0028676063976669033,"164":0.045361055639516146,"165":0.013590080579258626,"166":0.026108614659021603,"167":0.021782412151059957,"168":-0.009590048189861365,"169":-0.1775450001586989,"170":0.005175585107291602,"171":0.009954293040250294,"172":0.00907675039518468,"173":0.04137674643064101,"174":0.01943769312633034,"175":0.004180777761494629,"176":-0.013696139240837664,"177":0.054464232770710753,"178":0.06469279851911972,"179":-0.08839108200441097,"180":0.013757631823421093,"181":0.14512883694805032,"182":0.052927282955582,"183":-0.05625467941547965,"184":-0.10311830542119334,"185":-0.0032636168286278924,"186":-0.02697650956791972,"187":-0.01113103486562495,"188":0.0815161506629499,"189":0.00783084490636386,"190":-0.03902301237457532,"191":-0.015029590660112922}},{"sx":1,"sy":1,"depth":192,"w":{"0":0.06097469405781274,"1":0.1868088796261269,"2":-0.021057994779503687,"3":0.04674407007205704,"4":-0.015161567258606375,"5":-0.0020509590262694547,"6":-0.037318419811022054,"7":-0.16373131006508385,"8":0.004601739119563265,"9":-0.029554475663454555,"10":-0.03338774552754732,"11":-0.13363572967703213,"12":-0.006168422426388227,"13":0.020873726535157566,"14":0.0690275347624559,"15":0.02561765512591825,"16":0.03074185175620572,"17":-0.0052494824101035065,"18":-0.05124424577781498,"19":-0.04979779324166174,"20":0.0036097597304027887,"21":-0.08640011907546487,"22":0.19947501058527634,"23":0.007447639138010402,"24":0.061596856780569295,"25":-0.04016194497241924,"26":-0.0320362920933731,"27":-0.057375413002852226,"28":0.053212539354926744,"29":-0.10156099724150143,"30":-0.054283352605075545,"31":-0.08219600346627232,"32":-0.026666882623343723,"33":-0.027400210143199863,"34":0.004069966725099778,"35":0.06097914055003721,"36":-0.019827711709896494,"37":0.034648603150052915,"38":0.02653212206607371,"39":0.04225878730186063,"40":-0.05516249739142172,"41":-0.037712457371640154,"42":-0.08150168421896285,"43":0.04182071250810359,"44":-0.15282292595789873,"45":-0.03059225206421083,"46":-0.026577777801014682,"47":0.004801583016094253,"48":0.07095954951634152,"49":0.023734916990567633,"50":-0.024728108985903642,"51":0.02039029722613478,"52":0.09763941008863099,"53":-0.050984906902178044,"54":0.0003183677735678954,"55":0.018164978883141312,"56":-0.17414021088368367,"57":0.10015489421298598,"58":0.003932107858915242,"59":-0.011433366978286997,"60":0.01591148791163586,"61":-0.08010131859528463,"62":0.08506609781855082,"63":0.005427960780780309,"64":0.047154004470561096,"65":0.10376639764799826,"66":0.12729354540030086,"67":0.05449593693910256,"68":0.018194578204289352,"69":0.012259206589014719,"70":0.11453597666402666,"71":-0.01929041515965237,"72":0.00021662511473238843,"73":0.022970354879745043,"74":-0.027100644546302784,"75":0.0029009710742843196,"76":-0.04400996125446987,"77":0.04738633024071972,"78":-0.02977046144820989,"79":-0.0007090177515117214,"80":0.01066902396915762,"81":0.09902707123802958,"82":-0.00246828208994539,"83":-0.056283120242845396,"84":0.004453742595074879,"85":0.07035381795611295,"86":-0.010203930595216565,"87":0.11713266192968604,"88":0.014721807343397494,"89":0.0768199187915359,"90":-0.03510762232478887,"91":-0.008786507565874888,"92":-0.050121183146171776,"93":0.14988340272759423,"94":0.06871730862778822,"95":-0.005162189892484694,"96":0.06750675221727992,"97":0.06090790020143089,"98":-0.058416416418918884,"99":-0.009284909124627169,"100":-0.04096546116420088,"101":0.004398297414857451,"102":0.03701874941920169,"103":0.011620942219634518,"104":0.1557865254934133,"105":0.0674695649833547,"106":0.002176415645168553,"107":0.052027858801472565,"108":-0.037071102725039086,"109":-0.08183161425327913,"110":-0.11112640874042388,"111":0.008627081972883572,"112":0.008473315851739972,"113":-0.014350201808285775,"114":0.09181515027392427,"115":0.041869180969348004,"116":-0.17949795604034982,"117":0.12027439860336314,"118":-0.006359923209279852,"119":-0.025277593170178587,"120":0.04523380030228855,"121":-0.025815266871945134,"122":0.12026986150068944,"123":0.05125970134195281,"124":-0.060410919890802585,"125":0.03455078992281324,"126":0.006758384859905497,"127":0.09771835182421704,"128":-0.1642538498512825,"129":-0.1270581490115443,"130":0.08338258791554377,"131":0.06309825297997891,"132":-0.006701471351502174,"133":0.05974817289455797,"134":-0.07805518909846249,"135":0.008653434853087822,"136":0.038338994244941436,"137":0.08246611062934202,"138":-0.037573259569029994,"139":0.10387230912933611,"140":0.06732520286116507,"141":0.0345259520653607,"142":0.10570390995151684,"143":0.020642680936099576,"144":0.06464671263048055,"145":-0.046931877181394084,"146":-0.038355848562273295,"147":0.1272708897745391,"148":0.10889883346723563,"149":-0.054593940706333347,"150":-0.018027739981610644,"151":0.012440316863242285,"152":0.07226969963906871,"153":-0.11083363695497991,"154":0.05920827837747302,"155":0.06305990206306686,"156":-0.04300811314719128,"157":0.025912836490426288,"158":0.06271045621031435,"159":0.1316160772707166,"160":0.030708545640857,"161":0.033680685971739115,"162":-0.040841745107912934,"163":-0.0368435126981996,"164":0.043022721250367296,"165":-0.020816596314533944,"166":-0.02496152391366355,"167":-0.017487493140228214,"168":0.03167571206975024,"169":0.0017939800010226264,"170":-0.015965735185219182,"171":-0.058477905129859946,"172":0.06752874629956797,"173":0.020668589167762985,"174":-0.12861366630619409,"175":0.09697702166824473,"176":-0.04871848789739814,"177":-0.09353235959380608,"178":-0.09768719504246338,"179":-0.006306045872444216,"180":-0.08361517613127309,"181":0.16851572127153897,"182":-0.04520976637923925,"183":0.03796239557215124,"184":0.03819614062176059,"185":0.013419338009667919,"186":0.005240465903722176,"187":-0.013112332647086406,"188":-0.037983807748032956,"189":-0.046784456037456096,"190":-0.02140273889444115,"191":0.1205620692533197}},{"sx":1,"sy":1,"depth":192,"w":{"0":-0.0755898046274292,"1":0.0397661263455585,"2":-0.03733122326502037,"3":-0.025626367629212107,"4":-0.11390218291099413,"5":0.01563085072661677,"6":0.016904895493475038,"7":-0.02445126801573468,"8":-0.013118043829372109,"9":0.04279426426417497,"10":-0.0002920724713324263,"11":0.020612233090305316,"12":-0.0936110651410553,"13":0.13683603946817588,"14":0.05267938891125403,"15":-0.031480563362106986,"16":-0.028309236147389158,"17":-0.0069997494619692185,"18":-0.061166553724749835,"19":0.007738897459367535,"20":-0.058601762181580065,"21":-0.07334237073482364,"22":-0.0646793192540069,"23":0.08583872326187778,"24":0.06179727048764615,"25":-0.1255997740284658,"26":0.04110503403135911,"27":0.11588601895903243,"28":0.04119815980193274,"29":-0.05598816916995128,"30":0.08841180060487529,"31":-0.010247563683692628,"32":-0.02876435491399144,"33":0.023606244201328126,"34":0.041367043647074275,"35":0.02450289251160203,"36":0.10563588394447244,"37":0.11171454236978107,"38":-0.0859197076630557,"39":-0.06490539981143183,"40":0.07074158836989276,"41":0.21395024023894035,"42":-0.04058360503740279,"43":0.0144135974485509,"44":-0.05102007372775743,"45":0.025296760257269412,"46":0.0679492586013053,"47":-0.015934904316747694,"48":0.009735523652058844,"49":0.01647236604973517,"50":-0.04082870317201632,"51":-0.02720418070748867,"52":0.0005632853361872797,"53":0.05357579445848875,"54":-0.03277038432315082,"55":-0.027276868536468237,"56":-0.08293390861085959,"57":-0.01483528902931381,"58":-0.06110246901932369,"59":-0.004363220024025656,"60":0.03484059767768169,"61":0.03733878736867276,"62":-0.019793582303272664,"63":-0.04257922500032447,"64":-0.007818383464173715,"65":0.03831384697978063,"66":0.03938894611209167,"67":0.04616959979803031,"68":0.002036782883285953,"69":0.046309041411817596,"70":-0.11323313478198195,"71":-0.05256084781745529,"72":-0.003376202429504241,"73":0.01720108565360884,"74":0.012207178396487904,"75":0.07855254408151566,"76":0.10595295584479375,"77":-0.08622286632108855,"78":-0.0017477387962960313,"79":-0.06600176612939933,"80":0.06558582911749854,"81":0.10006047811952458,"82":-0.04995795271082383,"83":0.05676114225467353,"84":-0.01702589684092636,"85":-0.06094545027809532,"86":-0.008888485695954717,"87":-0.01631805443875673,"88":0.12509471442192308,"89":0.0745174686367342,"90":0.17049827027339548,"91":-0.02940630627630399,"92":-0.04077482577122215,"93":-0.014874563652289537,"94":0.129924694131422,"95":0.019540687604504458,"96":0.0047695815825538,"97":0.04512657820761687,"98":0.0033215850399278936,"99":0.0023998393442074464,"100":0.07429527999411852,"101":0.08562553546645907,"102":0.016595394396832136,"103":-0.045824381548643156,"104":0.0900101716404822,"105":-0.10021772634493603,"106":0.06844241494752377,"107":-0.07105852001109883,"108":-0.0389084432668619,"109":0.07366743164856471,"110":-0.025655871731223117,"111":0.03408469948787555,"112":-0.0005466566882417912,"113":0.030163782447880864,"114":0.00586980813791479,"115":-0.0916225807061004,"116":0.051380546384528485,"117":-0.02638090073796553,"118":0.06969529152929593,"119":0.04349761328479521,"120":-0.07743287668310898,"121":0.13929395265840683,"122":-0.05319545479254322,"123":0.08885707796497731,"124":-0.031093506409397544,"125":0.00023061061551245688,"126":0.004876780018567327,"127":-0.07924173332172946,"128":-0.04122780102436646,"129":-0.025585306285182623,"130":0.09862522019391436,"131":0.09642841424425903,"132":-0.04973751592626403,"133":0.01901743707412192,"134":0.11050235432127786,"135":0.08588830288087308,"136":0.039634586188761485,"137":0.11984614768325803,"138":0.06221728024784036,"139":0.005972182744449273,"140":0.06738699067761877,"141":0.11926886314909546,"142":0.01876898787639481,"143":-0.09458508085170253,"144":0.010625750710613387,"145":0.0884074289535213,"146":-0.013289702510385352,"147":-0.04722889969233336,"148":0.09547194472414132,"149":-0.0034429787845683493,"150":-0.07548997590939086,"151":-0.04706922167929301,"152":0.059018782495774115,"153":-0.011476960553831595,"154":-0.008130059350290843,"155":0.12373149318453816,"156":-0.07034812661902394,"157":0.0956140071515081,"158":-0.023432981637933017,"159":-0.03652388330204316,"160":0.06660943705146374,"161":-0.036466020921350484,"162":0.049288021476430514,"163":-0.05121814942123614,"164":0.06662834614371166,"165":-0.03616420747400635,"166":-0.0449525271795472,"167":-0.058380708839439,"168":0.06449521197558995,"169":0.07188355178592165,"170":0.03324717545374601,"171":-0.012286903185778568,"172":-0.05030962930960434,"173":0.07671658282908253,"174":0.08944740715353422,"175":0.06817104812317187,"176":0.0847596735374087,"177":0.028800083154506145,"178":0.055612567469274364,"179":-0.035377279552794474,"180":-0.029134161549371103,"181":-0.06191097368416281,"182":0.05908956523064948,"183":-0.042671078382907825,"184":0.0214945367293943,"185":-0.05010075360766478,"186":0.015856466259714746,"187":-0.05686553725171998,"188":-0.06433157555680542,"189":0.007439508544645329,"190":-0.004916036990713514,"191":-0.023864873146123927}},{"sx":1,"sy":1,"depth":192,"w":{"0":-0.10808258460997093,"1":0.042888678144243096,"2":0.08367171534153066,"3":-0.002090191341986761,"4":0.11317311686525636,"5":0.036131452977589865,"6":0.01689885140704611,"7":0.04902456962631045,"8":0.08243723892500639,"9":0.16985760230100905,"10":0.007278592826882319,"11":0.09446266854562332,"12":-0.011463011637258163,"13":0.1220127861114856,"14":0.026045384225798104,"15":-0.03851024863075451,"16":0.060003471921170295,"17":0.08917210755489896,"18":0.06797236644056999,"19":0.008927723276708823,"20":0.019085598094160452,"21":0.03972116449018185,"22":-0.020307547809668768,"23":0.10482531242170054,"24":-0.13826523519518735,"25":-0.02044226259363737,"26":0.0834113830110803,"27":0.07034263789862671,"28":0.020624494386458445,"29":-0.018652381892138577,"30":-0.027174935087115566,"31":0.05865118190325235,"32":0.01669677447837226,"33":0.05528737156035208,"34":0.10605953159251726,"35":0.03616585574394301,"36":-0.12901805605143016,"37":-0.007346330580434837,"38":0.05479044239306703,"39":-0.0032108171989915684,"40":0.025886850760033237,"41":-0.014837890551674017,"42":0.003059136228139518,"43":0.07724684629061876,"44":0.023838366303687037,"45":0.012402804158925416,"46":-0.05443247349297257,"47":0.06274141708153134,"48":-0.017431980463481465,"49":-0.0016848534720465824,"50":0.001146315258441426,"51":0.003064278724244681,"52":0.10682708171563526,"53":0.0926811412532027,"54":0.05336080127852397,"55":0.013974029473745611,"56":0.03368014942419201,"57":0.025641242608133157,"58":-0.028090662548796715,"59":0.01614775389857381,"60":-0.05889346756277945,"61":-0.13384847568770372,"62":-0.015538190445471368,"63":-0.0932752173178887,"64":0.019742745300420462,"65":-0.014276404039437175,"66":-0.026306483195503973,"67":0.015416563853094575,"68":0.032957993077342054,"69":-0.04071036866471506,"70":-0.05348881109159008,"71":-0.046895294515265466,"72":0.021626042551068127,"73":-0.1428010874337245,"74":-0.037609922832491295,"75":0.10748662688637038,"76":-0.0927519314327296,"77":-0.029403680969978974,"78":-0.0639728797852926,"79":-0.012895929852204214,"80":0.05066789815462871,"81":-0.05542861483052483,"82":0.036257151816040174,"83":-0.04647643195023816,"84":-0.09403336298786047,"85":0.002159955765918744,"86":-0.0533736829060709,"87":0.02013544808041948,"88":0.04232314701042252,"89":-0.05534123430022656,"90":-0.09545600955918555,"91":-0.11249460131722887,"92":-0.060989475584724936,"93":-0.03737351295350778,"94":-0.03859792559729632,"95":-0.12104527074265478,"96":0.07265303181130711,"97":0.04581266528787567,"98":-0.14923817320126107,"99":-0.08559243085352124,"100":-0.15667563819561767,"101":0.016572356137132625,"102":-0.04049950161059008,"103":0.036390920631035606,"104":0.07795799898571405,"105":-0.04366009316060497,"106":-0.06787843645469642,"107":0.0871228339257748,"108":0.1198442465174982,"109":-0.0068945290556398815,"110":-0.054773577115462053,"111":0.12817750545808473,"112":0.054076653982995285,"113":-0.009975458436515823,"114":0.009729848980307198,"115":-0.004650641243299203,"116":0.1342295689500813,"117":-0.09256297822562258,"118":-0.01932591842022344,"119":-0.0036713114236413625,"120":0.013137941810010227,"121":-0.08736481519056999,"122":-0.1521466424801445,"123":0.04671089971288262,"124":0.0038136123321246378,"125":-0.047123904592000374,"126":-0.004987060744476474,"127":0.08648638122186708,"128":0.07382138619232989,"129":-0.073298281173398,"130":-0.15803680336812823,"131":-0.11352491876027009,"132":-0.16747846787518547,"133":-0.16621288156846156,"134":-0.09259222369078515,"135":-0.18100783203505352,"136":-0.19423414759563315,"137":-0.15089358767839484,"138":-0.0791625739560339,"139":-0.001266780096394093,"140":0.02068057003865921,"141":-0.18046490328014395,"142":0.023401485114886093,"143":-0.021968008337842262,"144":-0.07209251199074884,"145":0.06463627902015441,"146":-0.1752118134962913,"147":0.01482288616799564,"148":-0.09157542228091214,"149":-0.048578691865824225,"150":0.007561465548876403,"151":0.0055897236803974975,"152":0.02096552998975069,"153":0.04050503155518756,"154":0.04154300458112086,"155":0.11474124212031302,"156":-0.2542083179744039,"157":0.04995273691122118,"158":0.05803075575905641,"159":0.04745979612100588,"160":-0.04786318445301086,"161":-0.051633603595239164,"162":-0.07917689681297536,"163":-0.06743766676686154,"164":0.03668834143458162,"165":-0.0404655570693738,"166":0.0026956520153716542,"167":-0.060014323897590344,"168":0.05522694024785249,"169":-0.0019375959732792004,"170":0.022528175163403413,"171":-0.0317643707147374,"172":-0.1194704123395019,"173":0.054916649953222735,"174":0.0009831857225757862,"175":-0.03392302434203741,"176":-0.009302648139990325,"177":-0.1056642555664003,"178":0.049747269021574815,"179":-0.00943365670281916,"180":-0.034942220566515456,"181":0.010705200303195323,"182":-0.09546524428066856,"183":-0.07532491127577838,"184":0.06890233694473119,"185":0.05028474569246438,"186":0.0033724659121520725,"187":-0.048574410197151294,"188":-0.01474224567562973,"189":-0.07201859954887586,"190":-0.031162104561584098,"191":-0.13046486865151477}},{"sx":1,"sy":1,"depth":192,"w":{"0":0.10598027089200678,"1":-0.0560542211283616,"2":-0.04034694025969528,"3":0.0277831917853901,"4":0.03474977196545053,"5":-0.09511849317367878,"6":0.12220343669506172,"7":0.048839024870833525,"8":0.0448220384888992,"9":-0.061630931719581304,"10":-0.03934387909548573,"11":-0.04326979125619901,"12":-0.058179005450963474,"13":-0.024868964395610635,"14":0.12462023494775525,"15":-0.033309503027623484,"16":-0.07752921788989464,"17":0.04165013722560061,"18":0.004989585047044103,"19":0.04401017792173765,"20":0.050997347402877896,"21":-0.08159447768568423,"22":0.029934078170134,"23":-0.005886727872382426,"24":-0.03085661418134619,"25":-0.03236806499199007,"26":0.15226542713496952,"27":-0.040818860048706995,"28":0.05775894485548399,"29":0.04667888483886915,"30":-0.11415452221190424,"31":0.00700828448428577,"32":0.002069001862976965,"33":-0.003435653200659244,"34":0.0805836535077712,"35":0.09798348824488723,"36":0.017767456862584394,"37":0.07019504137324839,"38":-0.09925292211959967,"39":0.012547025902019636,"40":0.01632830748133815,"41":0.027382651989560258,"42":0.031177060188098737,"43":0.029056742656719994,"44":-0.026782678007953076,"45":-0.026721391946528603,"46":0.0013822673499632376,"47":0.09391835313223577,"48":0.13150026903924997,"49":-0.04892762546703161,"50":0.01782544902572468,"51":-0.02025613582462095,"52":-0.006514265235631749,"53":0.04300639347072075,"54":0.028730135316695035,"55":-0.06612993572653085,"56":0.15457199277544406,"57":0.05113502559814715,"58":0.030086987428288695,"59":-0.004514323764169451,"60":-0.0353657205276243,"61":0.09048117138408213,"62":-0.063172912247495,"63":0.03728454403519101,"64":0.03485539068361113,"65":-0.02839683414075714,"66":-0.056569412918583514,"67":-0.05737030907723515,"68":-0.003138434197696738,"69":0.05963458356673215,"70":0.019959181252138775,"71":-0.05386591021831948,"72":-0.00973112004123219,"73":-0.020821978770924173,"74":-0.004254839654545931,"75":0.07807283449841165,"76":0.006649171153353119,"77":0.024268659797138496,"78":-0.0875403995113511,"79":0.03429207572114261,"80":-0.05685064322550619,"81":0.05147194267281561,"82":-0.07594438124752916,"83":-0.05873415522285403,"84":0.004414013585864435,"85":0.024202075123256717,"86":-0.0234322193063628,"87":-0.011178424408718165,"88":0.004934455053028144,"89":0.05048651768329618,"90":0.049186090977942146,"91":-0.06692607891336456,"92":-0.061355104826517994,"93":-0.02368469712438808,"94":0.07067263449543171,"95":-0.07064371813914722,"96":-0.11563705045827508,"97":-0.08876566994286626,"98":0.01928467781839505,"99":0.05827988121006371,"100":0.1083724889584969,"101":-0.05352398387919501,"102":0.021909532410276863,"103":0.028560464701769626,"104":-0.11108491212198905,"105":-0.08968572793063016,"106":0.03807936202996771,"107":0.083172822989079,"108":0.028327954890046064,"109":-0.08221758390977221,"110":-0.022534038532492976,"111":-0.000004857536958007912,"112":0.012233477047109078,"113":-0.04600642611753276,"114":0.02061706895340261,"115":0.036303659168925945,"116":-0.11661073239394473,"117":-0.015569759536293769,"118":0.05733992136638794,"119":0.12424767939243876,"120":-0.10623229622553615,"121":0.0204112352835999,"122":0.0048805496717856355,"123":-0.16672123955545304,"124":0.04622377732885368,"125":0.0037601414876394187,"126":0.017149121277943012,"127":0.09572121421932266,"128":0.0733649206429602,"129":-0.06189105855675413,"130":0.007976748873602066,"131":0.008589752870400022,"132":-0.06984467075786846,"133":0.04793034152568267,"134":-0.034067221138171754,"135":-0.009703055806688414,"136":-0.01179934869003075,"137":-0.004855649334776829,"138":0.039521472136166996,"139":0.0685478911951623,"140":-0.09210178146699341,"141":0.01635895476474369,"142":-0.0005905427745493476,"143":-0.01362577602019131,"144":-0.09293242049881816,"145":-0.03593013704036478,"146":0.11233219906982632,"147":0.011039832675125911,"148":-0.027674346009512435,"149":0.0029951085678174352,"150":-0.0296520035676223,"151":0.027140036378762195,"152":-0.052201210243133574,"153":0.005378472111292422,"154":0.03850106830407425,"155":-0.013046661391599849,"156":0.11087041224912876,"157":-0.04049606051327113,"158":-0.0694390470690755,"159":0.04899547268988997,"160":0.01511775243790542,"161":-0.12399316091880407,"162":0.10549950341757226,"163":0.04157199051286497,"164":-0.11090331221100155,"165":-0.021277193712474055,"166":-0.12355638425949207,"167":0.020945165526456592,"168":0.0008344552986618913,"169":0.15660235439801,"170":0.009984527825928605,"171":-0.02105442927457484,"172":0.01907958158809884,"173":-0.03808405825501924,"174":-0.026643495062858534,"175":0.008550697151954311,"176":-0.007637786201678394,"177":0.0948127925021227,"178":-0.002780564673878419,"179":0.01553681063567685,"180":0.05550578642597902,"181":0.0028122955580374507,"182":-0.011311435746992938,"183":-0.06433264430063769,"184":-0.06058189689496453,"185":-0.02466200085475697,"186":-0.0546116064635708,"187":-0.019542705267816353,"188":-0.09256925245883955,"189":-0.0704174458027567,"190":0.014512101768864036,"191":0.04358622198655778}},{"sx":1,"sy":1,"depth":192,"w":{"0":0.05850062755224815,"1":-0.0867195981649575,"2":0.03199302773316827,"3":0.06718971252776693,"4":0.01663052303900301,"5":-0.00555906994303093,"6":0.03659838291968146,"7":0.05793074323288012,"8":-0.044205140214273714,"9":-0.10515783549100204,"10":-0.008349463541232185,"11":0.010646987015791028,"12":-0.12163799908347779,"13":-0.10609261137386083,"14":-0.08257849885445405,"15":0.019649164353135577,"16":-0.0534899162997977,"17":-0.029246414074114387,"18":-0.053238334759667494,"19":-0.0009008264679674234,"20":0.10258653368011161,"21":-0.06471132696968653,"22":0.02344548381681594,"23":-0.0025596046554032955,"24":-0.053658308310013406,"25":-0.015492958482799373,"26":0.10842266611671415,"27":0.013179737982714226,"28":-0.023341176598983264,"29":0.10634524925116605,"30":-0.05471046856919864,"31":0.008663347976037175,"32":0.07602380717416644,"33":0.038454699168868685,"34":0.06897857027736148,"35":0.06094213518995122,"36":0.09695450941331842,"37":-0.020773423755604425,"38":0.004251666452603799,"39":0.06953008709132064,"40":-0.1332091526448149,"41":0.08156934174794522,"42":0.19776336039121636,"43":-0.009818403433032514,"44":-0.0642009916650906,"45":0.06187538791773431,"46":0.05777424086861113,"47":-0.034908099578143705,"48":-0.014703749031410467,"49":0.011314152802519064,"50":0.03374510828472907,"51":-0.043331749995186596,"52":0.06868448332160271,"53":-0.004309255221805907,"54":-0.029465818640345948,"55":0.04905669696681103,"56":0.030406149475221814,"57":-0.07137910519324277,"58":0.014321542311560019,"59":0.037874168066275866,"60":0.0374229753822003,"61":-0.039287467280664796,"62":0.031480344576764914,"63":-0.010774702534226533,"64":0.04684124075382196,"65":0.05337103941355046,"66":-0.11587018255065305,"67":-0.009877698619639714,"68":-0.017155576132802892,"69":0.1395096879682261,"70":-0.09610630806032865,"71":0.05760180983895766,"72":0.03749632391235736,"73":0.15627590448261364,"74":0.028884430200332822,"75":0.006644868686645386,"76":-0.09248812755385201,"77":0.030986026087142116,"78":-0.04842674048322654,"79":-0.05752016787367672,"80":-0.056205601004534186,"81":0.038435894104963265,"82":0.06676751999488997,"83":-0.0052161913809845245,"84":-0.03620389952773989,"85":-0.039871236646149895,"86":0.009955184548204937,"87":0.0065261948936365605,"88":0.03988830478349506,"89":0.008190567773141682,"90":0.1919230842533661,"91":-0.010536537958422283,"92":0.007204005731107485,"93":0.04756533841289751,"94":0.05067934490510003,"95":0.014444357856960924,"96":0.010968911995226987,"97":0.08024987214377112,"98":0.029768919911918622,"99":0.16383785649370317,"100":-0.11563556913460937,"101":-0.044521265794053876,"102":0.07112876757187572,"103":-0.06153298392088309,"104":0.009623024722773573,"105":-0.06218141676011008,"106":0.024395154835572346,"107":0.005561725274199879,"108":-0.03363150585473795,"109":-0.0421906232186722,"110":-0.07670813450993924,"111":0.09005496561380057,"112":0.017144185979550752,"113":-0.005670763460354473,"114":-0.06088622645168334,"115":-0.05868679374799762,"116":0.018293679376972467,"117":0.048656704582312096,"118":-0.03294286505966864,"119":-0.024486804878098872,"120":0.04567843214967534,"121":0.17997387239399795,"122":-0.058640777997690484,"123":-0.015348547097835544,"124":0.09154597222244622,"125":0.02434380834667723,"126":0.01815286117073707,"127":-0.05115754202303399,"128":-0.03126987475918171,"129":0.10759813885231656,"130":-0.02695498702956499,"131":-0.021416703350645605,"132":0.0075710317421570465,"133":-0.004909188092294732,"134":0.08791567063859859,"135":0.0009184670101989242,"136":0.11675552177391577,"137":-0.028322512811536662,"138":-0.009193084337234802,"139":0.10192896496918485,"140":0.05074645070526572,"141":0.010257280235306632,"142":-0.10072531889295896,"143":0.06403022049819894,"144":-0.06307009117196462,"145":0.004230440208834206,"146":-0.035659578471004184,"147":-0.0031112852614819508,"148":0.1285070577840357,"149":-0.026296364231550153,"150":0.04505158339055929,"151":-0.025376499903894914,"152":0.10825789022240141,"153":0.01639901195507044,"154":0.061014278971979495,"155":0.13434997568571902,"156":0.10936384854973495,"157":-0.008084981981897733,"158":-0.002506513426583106,"159":0.06262140477193351,"160":0.07480515535513162,"161":-0.09606962847844625,"162":-0.055598198892906334,"163":-0.03813671949350223,"164":0.06972715508439768,"165":0.005514830596832203,"166":-0.03189195673946677,"167":0.007291894655815281,"168":-0.06718911029554385,"169":-0.0250678505486256,"170":-0.010220062507136819,"171":-0.007924290163694033,"172":0.02943851445246021,"173":0.04155755976233402,"174":-0.07100862541638339,"175":0.03968355422679874,"176":0.04443562685934278,"177":-0.009796524771762153,"178":0.0357588303733116,"179":-0.03677578183966644,"180":-0.054121192882186274,"181":0.04662543127238936,"182":-0.03613711433804074,"183":0.03198513693397612,"184":-0.09288155378966016,"185":0.04321544685482052,"186":-0.02866581127499479,"187":-0.046073554761922944,"188":-0.007359690049723607,"189":0.04295391103256889,"190":0.020840071732052972,"191":0.01774660913056735}},{"sx":1,"sy":1,"depth":192,"w":{"0":-0.10786279690758485,"1":0.031051558221667722,"2":-0.002748772299499562,"3":0.00020036500490665392,"4":-0.0033422982357687397,"5":0.014175622608036497,"6":0.018093822320451668,"7":-0.021209479788160117,"8":-0.020232410979953423,"9":0.04695571133222014,"10":0.056951028041064715,"11":-0.01246876444290627,"12":-0.09795770958231466,"13":0.037161289505323936,"14":-0.0029449279075029755,"15":0.03231713952081131,"16":0.034639266629206536,"17":-0.020514065321218508,"18":0.04573749205414096,"19":0.004012116601234708,"20":-0.00821968169729634,"21":-0.09077412641941693,"22":-0.03442468077460199,"23":0.03263823964029832,"24":-0.031958890386146695,"25":0.08745202349821408,"26":0.038757907177793434,"27":0.012277179101885466,"28":-0.11462262600322516,"29":0.03880204747160273,"30":0.04444266646299871,"31":-0.0217088193680297,"32":-0.017535943606414472,"33":-0.10506290056343585,"34":0.002957578927156412,"35":-0.06107867928467825,"36":-0.09554956163309083,"37":-0.08430924808122123,"38":-0.1060555556148612,"39":-0.12299847138194217,"40":0.0025503817472368583,"41":0.0824628204105133,"42":0.05945945662240701,"43":-0.05163394099637795,"44":-0.01929204574104744,"45":0.06757070099271137,"46":0.01577623632895106,"47":0.05046503527125024,"48":-0.0363696856937398,"49":-0.14292669510594536,"50":-0.042560867336048226,"51":-0.08050310660873632,"52":0.15506227078606738,"53":0.03572753702791719,"54":0.14300063125082005,"55":0.031262644559081856,"56":0.028846774397215055,"57":0.04544510486842629,"58":0.06604000775700553,"59":-0.0650915077706482,"60":-0.01000252028634379,"61":-0.020661356553413224,"62":0.012898281618407099,"63":0.0873426613137931,"64":0.03803294117294122,"65":0.0032886764512889744,"66":-0.13478845024192204,"67":0.0019202144733294051,"68":-0.14837639290776083,"69":0.037112869408056796,"70":-0.06635562873853786,"71":-0.04929845047449991,"72":-0.10204891174596684,"73":-0.035539367609970486,"74":-0.011561484434656441,"75":-0.07351183973079063,"76":0.10828505626475188,"77":-0.1590708130103843,"78":-0.002008269569517487,"79":0.03966272328284672,"80":0.09536343840103328,"81":-0.12731798627658011,"82":0.03883307348497797,"83":-0.03538656849426482,"84":0.07840499407982485,"85":-0.0023797457646147625,"86":-0.03946373304106274,"87":0.0561984406537223,"88":-0.052707426750329946,"89":0.011958542968879842,"90":-0.07650848431747571,"91":-0.06932274785128255,"92":-0.05858484440064886,"93":0.0061245027249377335,"94":-0.032401359550878195,"95":-0.05077136861423183,"96":0.08509918610114935,"97":0.007462609952770328,"98":-0.0004812454582860394,"99":-0.0064403055479998975,"100":0.010866912949633182,"101":-0.028160847981313363,"102":0.015907007419278692,"103":-0.04879182318338238,"104":-0.0019615000724099193,"105":0.032342301431801855,"106":0.023056681245010972,"107":0.006290212443793487,"108":-0.006891589513774451,"109":0.03660003501789602,"110":0.023389468455219893,"111":-0.025738544790645673,"112":0.03433591792313279,"113":0.04198850225357385,"114":0.011753214508135936,"115":-0.07291611012574653,"116":-0.033587905159058164,"117":0.06637859899685947,"118":0.022647893309043706,"119":0.01926566411471448,"120":0.054384788833610295,"121":0.07281798582466084,"122":0.05244764132873755,"123":0.09978230232158138,"124":0.0692760621592016,"125":0.04757065013454611,"126":0.07511762332897146,"127":-0.07319097719114309,"128":0.1280064210692703,"129":0.007142411127435749,"130":0.004577074859678421,"131":-0.05669960790328172,"132":-0.042320880249327966,"133":-0.15671067693972365,"134":-0.1099320436331423,"135":-0.15114488523720854,"136":0.06418140068906722,"137":-0.16935673677312735,"138":-0.13530117269424255,"139":-0.0020826897265531644,"140":-0.056396353499285186,"141":0.03349036806668123,"142":0.09772987093534559,"143":0.10533048259360761,"144":-0.08551022861190222,"145":-0.09013212740653438,"146":-0.004772392654487444,"147":-0.03343244973711214,"148":0.017287274266107763,"149":-0.03450984830133642,"150":0.04109687640372176,"151":-0.02959856705048984,"152":-0.1927704006330587,"153":-0.07950401682547853,"154":0.034743969739888546,"155":-0.07537055279860945,"156":-0.006856442816130031,"157":0.025919899539946126,"158":0.015447965957042656,"159":0.10969251676119256,"160":-0.13144032030127445,"161":0.05646661698919739,"162":-0.022213769948279293,"163":0.046072966747832254,"164":-0.0003771255877425082,"165":0.05322463339949565,"166":0.016037090372924258,"167":-0.01235721414225297,"168":0.03298870556531373,"169":0.09620939242525217,"170":0.17713596181068167,"171":0.0023395033917004457,"172":-0.03778723267696865,"173":0.07580516674558391,"174":-0.014062131018395395,"175":0.10722838945026268,"176":0.033442227184747694,"177":-0.08697309474690013,"178":-0.008940656249879431,"179":0.022203764130292344,"180":-0.03903974749309252,"181":0.08435930336252524,"182":-0.006475055119532229,"183":-0.08779687255982153,"184":0.09518492426193936,"185":-0.0631099521178445,"186":-0.03682752290633993,"187":0.07839567965931214,"188":-0.06434787261204576,"189":0.04875686271005043,"190":0.044131366008766486,"191":-0.028646515887212034}},{"sx":1,"sy":1,"depth":192,"w":{"0":0.03120508666266945,"1":0.0998044596545571,"2":-0.036608595221242664,"3":0.06342765122164257,"4":0.11238393865345973,"5":0.042653609629962896,"6":-0.06511976688788801,"7":0.0726962700077273,"8":0.059642648502545415,"9":-0.03145429433617193,"10":0.0856458232494721,"11":0.0008657668492873519,"12":0.06991351810855476,"13":0.0292788874201737,"14":-0.04989633094431995,"15":-0.008109955906281021,"16":-0.04384740672766549,"17":-0.10330176436778842,"18":0.05154049091677069,"19":0.03383502060534002,"20":-0.049241191671609105,"21":0.016704893302515594,"22":0.020085540318189675,"23":0.008889915828214624,"24":0.0013278613871052678,"25":0.05808758295775745,"26":0.0996238484100239,"27":0.10682645957805569,"28":-0.06787260035520776,"29":0.01881918266986523,"30":-0.04603964648503547,"31":0.07867262255625704,"32":0.022696088951847958,"33":0.024280965816893194,"34":-0.04497763925395909,"35":-0.05978146422996011,"36":-0.06857596231141001,"37":-0.030914364648278455,"38":0.07529146728289945,"39":-0.020707787242542457,"40":-0.044780276900964235,"41":0.004988778591889272,"42":0.007476879047385076,"43":-0.05470295358107981,"44":-0.011936760904358011,"45":0.07083620781491765,"46":0.024238404314075385,"47":0.04346447285406729,"48":-0.04004330079078553,"49":-0.11239219422060051,"50":0.031645169716270655,"51":0.04356829269305177,"52":0.08778181046854575,"53":0.12856419401045371,"54":-0.02624177703492561,"55":-0.06866736155108301,"56":-0.006570599831409902,"57":0.03497726391888081,"58":-0.09481709372133522,"59":0.02728946554404799,"60":-0.018719586124321255,"61":-0.0260958299811917,"62":0.026247734704225072,"63":-0.027180529295961507,"64":-0.047817171320948315,"65":-0.08595121516407789,"66":-0.011795173754798714,"67":0.02805180798158728,"68":0.06467612681460305,"69":0.09862338598686247,"70":-0.0963104346240435,"71":0.013372130934567796,"72":-0.006819555094039469,"73":-0.01640012335962112,"74":0.010629262135185743,"75":-0.13418629571395985,"76":0.09374010770518357,"77":-0.043457390074524316,"78":-0.017141695686741364,"79":0.06693973831609068,"80":-0.039204625217126254,"81":-0.09587587481459518,"82":0.04456708618322996,"83":0.0801096145387562,"84":0.05439979701233778,"85":-0.07173510967893637,"86":0.12219127860773225,"87":-0.004451016317951225,"88":-0.06965150067381888,"89":-0.00952990600930078,"90":-0.025947210120099724,"91":-0.028974518029653725,"92":0.020952746385573515,"93":-0.0348729414627141,"94":-0.08438372813695164,"95":-0.05187340760760398,"96":0.06652105532004193,"97":-0.041113650608505393,"98":0.00822297258729912,"99":0.02910464069491287,"100":0.04523613044436331,"101":0.1703511239662901,"102":0.002932874042675707,"103":0.02669414092121913,"104":-0.016020041989652775,"105":0.10310416391894402,"106":0.02241951830506196,"107":-0.029789285083256158,"108":-0.1458305512560813,"109":0.046251886465712676,"110":0.06772886615869077,"111":-0.05372533791508758,"112":-0.03771638350645149,"113":-0.1581583134296133,"114":-0.03530554490147053,"115":0.004772543728975726,"116":-0.0051435952304439555,"117":0.17224673736400753,"118":0.13092039549963522,"119":-0.03940214006725956,"120":-0.01424567411428338,"121":-0.018873561751580604,"122":-0.03181399598854102,"123":0.10945757215500454,"124":-0.04436873658203527,"125":-0.012187771352894873,"126":-0.05808913029190203,